437 25
president 0.9006618 -0.033632275 0.10184146 -0.054159503 0.070214614 -0.07109658 0.102708705 -0.09468985 0.015990315 -0.031844772 0.070616014 -0.0030717226 0.009059737 -0.010659083 0.007634873 -0.009954223 0.01963289 -0.0068924483 0.02586421 -0.043997377 0.009259039 -0.04877077 0.0015685033 -0.008301821 0.013306939
monk 1.0093021 -0.1501727 -0.19352809 -0.0762176 0.27252594 -0.0881737 0.090837695 -0.070357196 -0.039776858 -0.029825898 -0.0055194707 0.060439263 0.049027976 -0.039997403 0.007881467 -0.029005354 -0.021267595 0.021718822 -0.02914049 -0.08121259 0.020637475 -0.034425687 -0.014541724 -0.029076628 0.025051335
chance 1.0432839 0.08481756 -0.4295528 0.07035689 -0.2673367 -0.11803318 0.16566952 -0.011540096 -0.014979224 -0.021998985 -0.03380439 -0.08024305 0.04830335 -0.00490501 -0.034308948 0.020221548 -0.05953141 -0.016707083 -0.018725276 0.009352317 -0.02592003 0.0113373045 -0.028533295 -0.058119625 -0.03747471
party 1.0709125 0.20104383 0.031043906 -0.07325436 0.05092066 -0.022037143 0.05380275 0.009200598 0.011242004 -0.049427345 0.071209595 -0.028853321 0.03077849 0.014877395 0.018064745 0.0076005002 0.0037576198 0.01114099 0.0036202595 -0.0037347993 0.01893501 -0.0073495526 0.008272855 -0.0013151688 0.0031374216
fuck 0.932908 -0.07027894 -0.28593096 -0.29994887 0.36786613 -0.9283856 -0.95702904 -0.20059612 -0.2419945 0.081658944 -0.21267043 -0.09038426 0.20279598 -0.12916474 -0.11818764 -0.024960805 0.028842866 -0.014792364 -0.06448657 -0.04430814 0.03445222 0.043347843 7.8799896E-4 0.08854247 -0.12012226
psychology 1.1405971 -0.21530266 0.18301229 0.2709684 0.09342502 0.042757455 0.013066135 -0.17052029 -0.059188724 0.004385057 -0.10241543 -0.050101083 -0.058613334 0.09874509 0.019899696 0.019777069 -0.027917571 -0.020301498 -0.024184844 0.00855197 0.04259635 0.023764195 0.011761745 -0.0072847325 -0.039629646
government 1.0823556 0.31258687 0.05062861 -0.11803871 -0.022346882 -0.061597183 0.09971072 0.067098 0.0025357301 -0.04802573 -0.0029476956 0.00925145 -0.016420625 -0.024144541 -0.021221697 0.0025709623 0.002261272 -0.009309656 0.0035335445 -0.03103021 0.028319817 -0.024917968 0.0054600886 -0.008241674 -0.007815974
madhouse 1.4125367 -0.36095044 -0.47189766 0.20771216 0.008689606 0.09964372 0.31612816 0.41573676 -0.21915723 -0.11393336 -0.25158092 0.14060578 0.2200611 -0.05791814 -0.021377686 -0.08927025 -0.33298126 -0.017033698 0.31665176 -0.06629872 -0.01830045 0.16751412 0.24206202 0.28224915 0.10268192
video 0.94251305 -0.04913031 -0.041761614 -0.008329285 -6.512133E-4 0.010635815 0.021765497 0.05203545 -2.9644407E-5 0.042160098 2.7859188E-4 0.05314663 0.024155797 -0.021679679 -0.025856268 -0.0018168124 -6.2990905E-4 0.0013006417 -0.0064193453 -0.010512901 0.013029443 -0.0071210857 -0.0033040128 -0.019113535 -0.0010885515
defeating 0.9735947 -0.023489403 0.117167026 -0.09697768 0.13037927 0.1299089 -0.007895182 -0.14401267 -0.006321665 0.0052724653 0.0021906248 0.108782046 0.032399118 -0.059685424 -0.020521803 -0.0164121 -0.051747687 0.030835912 -0.04283496 -0.017062651 -0.0051150233 0.029241296 0.023959687 -0.05200043 0.025782652
death 1.0222344 0.122857645 0.039128497 0.08613052 -0.063682154 -5.038673E-4 -0.048105232 -0.07179657 -0.0502038 -0.029251307 0.13241814 -0.06255644 0.047630325 0.0019190151 0.02160789 -0.014536721 -0.020032369 -0.002596809 -0.009829641 0.019748708 0.009728027 -0.0024320297 -0.0056098117 0.024777738 0.03508069
image 1.0571485 0.10510537 0.0027771944 0.12066981 -0.018765755 -0.08306588 0.029820116 9.2980765E-5 -0.025284756 -0.02284579 0.09557708 0.020523783 -0.008323492 0.046168514 5.174233E-4 -0.06393615 0.04437696 0.02234514 -0.0045311507 0.011864111 -0.021281581 0.024620432 0.021313703 0.0047284327 -0.008421139
theater 1.1039977 0.029278051 0.064965926 -0.10077667 0.18573959 0.103168085 0.0075302827 -0.020495387 -0.030744003 0.009839093 -0.061776858 -0.038107626 0.041034725 0.09953667 -0.020804241 0.069139116 -0.018474214 -0.008483133 -0.020423155 -0.008766375 -0.026459955 0.025655387 0.020358918 -0.012674306 -0.015311771
number 1.1385363 0.14867441 0.011742444 0.5307487 0.009431365 -0.037430733 0.08549048 -0.061153542 -0.03793688 0.00663716 -0.03695224 -0.002456467 -0.0057569216 -0.055707425 -0.04443349 0.010490338 -0.0018078146 -0.01043857 -0.03821256 0.027873525 0.014645369 -0.012685052 -0.0054531405 -0.015045709 -0.007283779
astronomer 1.0268416 -0.1316034 0.087649815 -0.09715656 0.19898094 0.05993935 -0.0014211714 -0.19682832 -0.05024499 -0.04073468 -0.050234668 -0.03473028 -0.08223256 0.08730953 -0.10872861 -0.15466146 0.03962278 -0.035972383 0.020039514 0.025560642 0.045509152 -5.592324E-5 -0.032167412 0.08196661 -0.05616106
project 1.1157397 0.2303199 -0.011447335 -0.075896285 0.086942166 -0.037056666 0.028725304 0.030064747 0.039050557 0.012479873 -0.056557238 0.010737716 2.9250932E-5 -0.0054159015 -0.018446632 -0.012855733 -0.0020520634 -0.008475563 0.007992644 0.021464791 -0.008143311 8.561674E-4 -0.0027397897 -0.017564831 -7.845927E-4
dawn 0.97826093 -0.02643777 0.12140878 -0.07378228 0.10431095 -0.02208285 0.05060367 -0.088901974 -0.08326229 0.09618146 -0.028213097 -0.044123247 0.022157805 0.029091567 -0.0597231 0.035074648 -0.0366094 -0.03385606 -0.0034154458 -0.0049935174 -0.020840328 0.009956609 0.004803952 0.014210456 0.008975664
ear 0.9785811 -0.094801106 -0.0336816 -0.11745001 -0.11565018 0.0017651588 -0.070370734 0.015834928 -0.04607303 -0.034899563 0.11480437 -0.0048304023 0.037877683 0.04054971 0.020381844 -0.0386047 0.008938338 0.006337103 0.015981684 0.0728031 0.0028607144 0.044816546 -0.020161897 0.015994301 0.0039432687
voyage 1.0683091 0.17374177 -0.08035554 0.007302179 -0.0232405 -0.05918117 0.053405836 -0.05386647 -0.025526898 0.21561165 0.11002543 0.09365241 0.042911988 -0.061709207 -0.03159979 -0.036383096 -0.022484375 0.011840876 0.01186749 0.013432441 0.007892561 0.038704034 0.034766957 0.0127705205 0.0053622946
valor 1.0253999 -0.175582 0.02973151 0.24187534 0.054700177 0.041090976 -0.14884035 -0.046821285 0.36691958 -0.12309807 0.00830262 -0.07990446 0.27614945 0.014570574 0.0043563 -0.020845756 0.0185068 -0.06871296 -0.024049932 -0.045536544 -0.061354805 -0.048615795 0.08952683 0.028277524 0.022610925
butter 0.9729516 -0.37100804 0.11973373 -0.020725537 0.048553657 0.054042954 -0.0053268466 0.1291707 -0.029485026 -0.020892791 3.7691748E-4 0.072900124 -0.007090197 -0.008859095 -0.030073231 0.056755744 0.033296306 0.019378252 0.026327148 0.012497113 -0.045169543 0.008952466 0.018286822 -0.013467062 -0.025353614
gin 1.006335 -0.40567848 0.04699981 -0.0996249 0.06485314 0.060747135 0.039483555 0.05955004 0.101416975 -0.09509182 -0.007952245 0.036910668 0.064686686 0.011946456 0.0041249665 -0.032555994 0.010136977 0.07795222 -0.013425209 0.021610225 -0.00922182 -0.011832299 -0.010458773 -0.0035403194 -0.006160009
reservation 0.980385 0.092439406 -0.1026664 -0.06649477 0.024632746 -0.029055815 -0.080596946 0.09873525 0.04036285 0.15177548 -0.020981314 -0.019457567 0.0135466615 0.046390016 7.370666E-4 0.021405779 0.035484448 -0.036604058 -0.03300883 0.0016001719 0.004616481 0.025557294 0.015707174 -0.033712525 0.0122284135
wealth 0.9636335 -0.09994878 0.14746737 0.12971075 -0.08693964 -0.05942981 -0.0069891317 -0.008348874 -0.039186936 -0.03340737 0.061632928 -0.011031243 0.019992484 -0.001085522 0.044308815 -0.009426141 0.02827764 0.04004948 -0.025741719 -0.06873383 0.010881886 0.010958182 0.020302214 0.0061224787 -0.017287988
eat 0.81373316 -0.28201908 0.021882998 -0.20565723 -0.3191922 -0.16880864 0.030488111 -0.0775716 -0.08003686 -0.00958366 -0.06714311 -0.05588522 -0.016530149 -0.00502064 0.012135559 0.07256092 -0.020562671 -0.040504232 0.063254334 0.016708452 -0.0031003333 0.053151 -0.06495327 -0.0025286702 -0.017401531
soap 0.97024006 -0.10490809 0.0074306726 -0.029549496 0.014441048 -0.082980275 -0.051066563 0.037383128 -0.022660783 0.032622512 0.017821915 0.015685473 0.0073939464 -0.038652085 0.0070370045 0.018206298 0.02683231 -0.008058816 -0.006182054 -0.018940488 -0.037491705 -0.00635991 0.005964851 -0.026283702 -8.6853E-4
discovery 1.0945333 0.24223992 0.090212606 0.09885946 0.083569646 -0.053093262 0.062255144 0.0039659953 -0.009075404 0.022131769 0.018280683 0.002773575 0.0039377385 -0.014672251 -0.025823662 7.4018043E-4 -0.008200106 0.011291981 0.0066821496 0.0014969679 -0.002166057 -0.010239227 0.0076354635 -6.2744075E-4 0.006745529
Jerusalem 0.0 2.9E-44 1.26979E-40 1.7145895E-34 7.5747924E-34 8.599138E-31 3.5575742E-29 1.603021E-27 4.9708233E-22 2.2482824E-20 4.4556924E-20 1.6199702E-17 7.775358E-18 1.1598565E-16 1.5032771E-16 -1.6478082E-16 -2.4692612E-16 -6.0094824E-17 5.054514E-16 3.4666406E-16 -1.4713865E-16 -1.7986844E-16 8.244811E-17 -8.9904276E-17 -6.9939166E-17
hospital 0.9721505 -0.009854374 -0.15004484 -0.12054605 -0.1250531 0.21225268 -0.04656726 -0.09646072 -0.064095296 -0.0034895064 -0.004034341 -0.08679108 0.036431134 0.09798735 -0.038472798 0.03710279 -0.06075264 -0.028905783 -0.03048902 -0.02930683 0.005692643 -0.03356303 -0.01369427 0.018957978 0.021284267
computer 0.9296159 -0.116718225 -0.10011752 -0.028462872 -0.041075915 0.013290542 0.049843326 0.04878689 0.0027363403 0.061538886 0.02067178 0.0010739643 0.011801592 0.0028381462 0.0043972535 0.008851119 0.0065780883 -0.01184954 1.2002943E-4 -0.0086448025 0.033974607 0.012495476 0.007951279 -0.019338444 -0.011708964
queen 1.177536 0.16890197 0.1405376 -0.07958835 0.15953636 -0.026934493 0.10999389 -2.8486172E-4 -0.052322257 -0.06273771 0.12655994 0.01278741 0.07797416 0.055386275 0.0197535 0.014131593 0.011826024 0.038256027 -0.025504712 -0.072466984 -0.044303436 -0.0068171485 0.018791713 -0.004537133 -0.009643643
wizard 1.1583619 0.17022881 0.10726621 0.090342335 0.16402327 -0.20518902 -0.10026102 -0.08356007 -0.074617386 -0.01915976 -0.021140393 0.07339975 0.048601706 -0.061760046 0.0056028627 -0.0022863105 0.01043586 0.018554116 -0.06578923 0.050084084 0.0041004485 -0.0059365514 -0.033360682 0.0040761456 0.04465584
oil 0.8631479 -0.07296194 0.116824664 -0.011881006 -0.10057902 0.028480085 0.028111346 0.009502082 0.006191871 0.0011376047 -0.013720292 0.024092322 0.0044274856 -0.02235226 0.0049361447 -0.008740646 0.0396114 0.042655177 -0.021937324 -0.04935062 0.018401843 -0.0083000045 0.018137563 0.0058032363 -0.006517007
currency 1.0491905 0.09067745 0.070400245 -0.0560429 -0.009689673 0.010794308 0.031408396 0.017765943 -8.5453707E-4 0.008635201 -0.041020654 -0.022290496 -0.0090777585 -0.039879005 0.043330513 -0.013638614 0.030648598 -0.01253502 3.0722964E-4 -0.024385436 -6.009383E-4 -0.0077828346 0.023754599 -0.01369242 0.011262321
laundering 0.96644104 -0.506677 0.3583689 0.057223078 -0.23883188 0.04618296 -0.095305406 0.15995967 -0.035347503 0.043089338 0.016186288 -0.039414663 0.034753855 0.0057000904 0.043276936 -0.0629224 0.007184226 -0.07253703 0.038676802 -0.031900957 -0.014303669 -0.0740943 -0.023257045 0.008335323 0.014061392
midday 0.8706961 -0.05892224 0.040779367 -0.23464444 -0.01084974 0.30588755 -0.11833891 -0.22673707 -0.0677767 0.12751849 -0.10102081 -0.11852661 -0.04494943 -0.01147819 0.028736033 0.044857603 -0.05530027 0.019811386 -0.06530664 -0.042804826 -0.011099037 0.052661907 0.073048584 0.0020199274 0.063104495
Arafat 0.0 -0.0 -0.0 -0.0 -0.0 -6.0E-44 -1.7281E-41 -7.075241E-39 -5.8845026E-31 -1.7096461E-28 -8.15232E-28 -2.319253E-24 -1.9942759E-24 -8.2433354E-21 -2.998826E-20 -7.303634E-20 -3.8004136E-19 -5.2796205E-18 -5.255393E-18 -9.3298305E-18 -1.1464461E-16 -3.1657198E-17 -2.4195652E-16 3.4739992E-16 2.9932561E-16
man 1.0226133 0.004629072 -0.39668444 0.057693172 0.09945989 0.0073332703 0.055199623 0.036298607 -0.021730632 -0.027938105 0.03402838 0.04652542 0.033268508 0.0041651684 -0.057276458 -0.009102644 -0.038117 -1.7746506E-4 -0.024824316 0.024647238 0.008861849 -0.06888633 -0.058419783 -0.024450986 0.021730551
keyboard 1.0397694 -0.15672247 -0.24621724 -0.035879366 0.06266489 -0.001915141 0.047277886 0.2263126 0.010797287 0.07311775 0.013657778 0.058885086 -0.034337986 0.070541136 -0.035284672 -0.0158455 0.09508841 0.03642385 -0.0042386395 0.041587558 -0.0068477956 0.031609382 0.039523996 -0.018561821 -0.03871809
announcement 0.9950473 0.36693132 0.0071871676 0.0011726764 0.10800907 -0.044151917 0.06517287 -0.01853854 0.027898848 -0.005165007 0.14445493 0.022693677 -0.07567912 0.049885564 -0.01826204 -0.044468496 0.0027479692 0.033801727 0.013197031 -0.09453548 -0.0027149054 -0.0096359635 0.06770847 0.030326128 -0.020235699
racket 1.0128037 -0.06319891 -0.13785264 0.019025125 0.020681283 0.021834182 -0.030026335 -0.022250723 -0.04428673 0.03991063 0.22227927 -0.03641839 -0.013579737 -0.03986247 -0.0030325577 -0.04292207 -0.040963203 -0.008688828 0.044258863 0.20452279 0.07511552 0.10816412 0.009193593 0.041674957 -0.04485921
Maradona 0.0 -0.0 -0.0 -0.0 -0.0 -0.0 -0.0 -0.0 -1.6136698E-37 -1.0619502E-34 -7.3725826E-34 -4.889521E-30 -5.2878043E-30 -1.2807266E-25 -5.545543E-25 -2.3676416E-24 -2.8713016E-23 -7.468609E-22 -1.6056716E-21 -6.931996E-21 -2.588821E-19 -2.5289478E-19 -3.496115E-17 -2.3009731E-17 -4.4071558E-17
anxiety 0.937231 -0.2373212 0.14035182 0.0053997664 -0.074488245 -0.07614536 -0.0034618422 0.087537795 -0.018833477 -0.042253487 0.007250256 0.013164803 -0.054626245 0.0230332 -0.012293257 0.042535197 -0.010508758 0.020642275 0.008292245 -0.011722889 0.03158568 -0.014345324 -4.3806946E-4 -0.01879049 -0.03291857
jazz 1.0510201 -0.06638098 0.12538601 -0.095483676 0.10079982 0.041999727 0.029181406 0.10382292 -0.037636 -0.009162784 -0.016598778 -0.0022438942 0.02478234 0.008876581 -0.02424922 0.02555978 -0.0018078743 0.0066810553 0.006617106 0.033959437 -0.017411511 -0.009283538 -0.011465983 -0.0037387493 0.0041016876
gain 0.9333998 -0.020599969 -0.15257601 -0.021096198 -0.31231877 4.1664505E-5 0.09134478 -0.07317645 0.015750874 0.004164274 -0.052338753 -0.07063468 0.039298866 -0.055731513 0.023316989 -0.031987183 0.026482074 0.0052081114 -0.030545268 -0.0044787726 -0.021939443 0.01676859 -0.029042423 0.009290568 -0.01651172
history 1.0497832 0.03277948 0.070391424 0.14524394 4.4220942E-4 0.1656134 -0.16543673 -0.095555924 -0.044098753 -0.0801613 0.008221772 0.03385358 -0.029195633 -0.033963345 0.072856106 0.017446153 0.016102266 0.012984775 -0.014869097 -0.0369116 -0.003265099 0.01521936 0.019970823 -0.016631503 1.4255123E-5
bird 1.0109756 -0.021056112 -0.0077337455 -0.01507634 0.09840172 -0.04147869 0.026443997 -0.016332855 -0.012654329 -0.022751745 8.2325096E-5 0.018300902 -0.0100415675 0.0072015123 0.013758498 0.009909829 -0.0062473794 0.02181682 2.1094467E-4 -0.021200264 0.015591314 -0.017709514 0.011310585 -0.0071525113 -0.012309692
possession 1.060117 -0.13650443 0.12273257 0.46655035 -0.13471176 0.081130914 -0.025604157 -0.020259222 0.013829115 0.08542318 0.08887694 0.054642215 0.024619492 -0.048147924 -0.03431662 -1.550375E-5 0.028820023 -0.048095588 -0.021384683 0.010461748 -0.05802397 -0.00955482 0.026576607 -0.014362208 0.030512372
chemistry 1.0523071 -0.21648614 0.15595064 -0.03711229 0.025455296 0.050039466 0.033247266 -0.020425608 -0.01548095 -0.034718994 -0.03145384 0.027710613 -0.01904433 -0.0042171627 0.0026673647 0.024160136 -0.019484809 2.9929227E-4 0.037153363 0.010844539 0.01259659 0.008962415 -0.0024186086 -0.029779395 -0.040952288
yen 0.9189681 0.1275626 0.01594249 -0.19205645 -0.116291694 0.03212634 0.15492305 -0.009207011 -0.061209664 0.14927751 -0.062524065 -0.1554422 0.038938574 -0.066391625 0.029901631 -0.0091152275 0.10555569 0.19530222 -0.06546933 0.029419037 0.042250168 -0.04351922 -0.020755978 0.13262464 0.03274114
library 1.1795707 0.17542495 0.075743444 0.008878752 0.076927386 0.08194714 0.008082998 0.041863106 -0.039941 0.0030309116 -0.03381555 -0.024210995 0.048635602 0.049711395 -0.009842678 0.014298439 0.006523934 -0.0014384083 -0.026868243 -0.0015893653 -0.004194605 0.017200904 -0.0020851297 0.0052123214 -0.015216444
virtuoso 0.93481904 -0.23447692 -0.118793614 0.07982425 0.13891208 -0.12444929 -0.10906349 -0.009631288 -0.0647792 0.0427373 0.020148244 0.07134673 0.046786524 -0.036714572 -0.020202963 -0.07401725 0.047324378 0.032852717 -0.03317893 0.0124381995 0.018967409 -0.029594144 0.01570184 -0.025751077 -8.653591E-4
psychiatry 1.3582952 -0.22948965 0.37745866 0.44282997 0.21394908 0.13419819 0.120149575 -0.24367636 -0.1886691 0.047974497 -0.11960005 -0.13505934 0.0040689204 0.16640173 -0.07927191 0.04310757 -0.028679088 -0.0929655 -0.031404372 0.0019429429 -0.0498098 0.0362896 0.0058964863 0.0015936686 -0.067921795
change 0.95107067 0.05407073 -0.024993436 -0.06764394 -0.186306 -0.08237842 -0.03708551 -0.038662102 0.029184045 -4.6138652E-4 -0.04103829 -0.019180607 -0.022062425 -0.0015709918 0.024366383 0.024038775 -0.025523065 -0.019861465 0.023666725 -0.007916733 0.026865358 0.004451672 -0.0040766364 -0.016191319 0.003758115
entity 1.0085511 -0.03303636 -0.29356498 -0.075659774 -0.0031516168 -0.091349766 0.009267871 -0.018443752 0.013497552 -0.03633803 -0.10202774 0.028256766 -0.091948986 0.029959466 0.0059871394 -0.08910982 0.07078126 0.047303215 -0.023979157 -0.011579392 -0.021026125 0.015400157 0.022143038 -0.035196267 0.044642594
tool 0.9422777 -0.13194089 -0.3698071 0.045775577 -0.063096866 -0.08330687 0.012430532 0.046215557 0.13458666 -0.037146877 -0.08470325 0.053731784 0.008694218 0.07862017 0.03460739 -0.03370026 0.027624113 0.018145826 -0.010910449 -0.0069724796 -0.03697394 -0.013505834 -0.007896155 -0.045503452 0.035414092
stupid 0.7761567 -0.18013078 0.020025257 -0.118834615 -0.084473446 -0.23768994 -0.15092567 -0.048267853 0.017244015 -0.003312356 -0.03886285 -0.012222325 -0.09411436 0.06388239 0.06511139 0.05695343 -0.06223245 0.019700233 0.08435778 -0.030792883 0.009985012 0.03588157 -0.025291245 0.023685515 0.037123937
precedent 0.87746626 -0.07453374 -0.3571019 0.09122989 -0.07075407 -0.06763234 -0.06329022 -0.01174339 0.30120558 -0.037889842 -0.06309266 -0.050357215 -0.037096776 0.06365254 0.022748286 0.053454686 -0.07039996 -0.031765666 0.027962497 -0.040723242 0.023860665 0.008557094 0.043427702 -0.016173527 0.034077033
architecture 1.0849471 -0.21756756 0.21761252 0.054970767 0.07553468 -0.0066760494 0.010075769 -0.026096156 0.029756622 -0.0326319 -0.010110433 0.022213519 -0.01742377 0.010974001 0.023262314 -0.01968271 0.015710898 -0.0015094049 0.004283461 -0.007703085 -0.03845643 0.024777874 0.02168822 -0.014367305 -0.010640173
consumer 0.90273535 -0.0901141 0.09226245 -0.05879419 -0.023399096 0.029665139 0.0042969026 0.0073316367 0.038729902 -0.009665971 -0.05131192 0.0253739 -0.009876417 -0.004995235 0.0042838296 0.0021420633 0.019917782 0.008233067 0.0034827664 -0.035342094 0.029294705 -0.023978174 0.01280234 -0.01396032 0.0022039483
doctor 0.99733925 -0.08117081 -0.2695344 -0.07627778 0.04130514 -0.052888695 0.08427148 -0.010277325 -0.0070570484 -0.039919373 0.06424994 -0.018140066 0.014972464 0.023226328 0.005871506 -0.0030714874 -0.011578268 -0.018933874 -3.415996E-5 -0.01873343 0.020926747 -0.022041311 -0.030980755 -0.009907609 -0.006858429
cock 1.1833094 -0.1031411 0.05624755 -0.075854905 0.13267782 -0.115453474 0.22251493 -0.18239261 -0.2189338 0.008602537 0.013422497 0.011293996 0.13723221 0.10336629 -0.10862266 0.15758772 -0.023784516 0.052410994 0.022294078 0.039085474 -0.05891938 0.03304501 0.008190392 -0.002182901 0.063496836
planet 1.1485922 0.29644832 0.09467429 -0.11338531 0.058959015 -0.082445994 -0.026525958 0.12797782 0.012159501 0.18074839 0.039763443 0.05214763 0.0049904766 -0.009351257 0.057869658 0.0023639966 0.017813306 -0.045915168 0.006588717 -0.023031797 -0.016274914 0.026626784 -0.0128050735 -0.013928455 0.01972561
software 0.88513035 -0.13184662 0.09364741 -0.065301195 -0.07887812 -0.041990124 0.051624045 0.013960894 0.05133721 -0.003126932 -0.023360487 0.008298709 -0.017301176 -0.006244025 0.014769976 0.012214923 0.033741508 0.025477406 0.01628911 -0.036905795 0.018728849 -0.0030516419 0.037403077 -0.015405133 -0.0125778755
personnel 0.90241146 -0.10145291 0.17355797 -0.0053233234 -0.16427721 0.02178206 0.010518885 0.06257778 -0.019324044 -0.03046104 -0.023237143 0.015410331 0.008822353 -0.01847395 -0.0646151 0.011373489 0.002683263 -0.018761173 -0.019952053 -0.038430534 0.047476556 -0.041160677 -0.036526117 0.02859541 -0.006354311
bank 1.0711331 0.16935413 0.13358893 0.023756402 0.05842602 -0.010761378 0.09775812 -0.02048694 -0.017929273 -0.007527047 0.0015905945 -0.010176587 -0.003747471 -0.03160967 0.01024009 -0.0030256226 0.022756571 0.014477671 -8.258573E-4 -0.030536024 0.013144062 -0.0069580562 0.023550833 0.0032968472 -0.004290096
Wednesday 0.0 0.0 0.0 0.0 0.0 0.0 0.0 0.0 0.0 0.0 0.0 0.0 0.0 0.0 0.0 0.0 0.0 4.1E-44 1.295E-42 9.5521E-41 7.85895E-38 1.23205955E-36 3.6508728E-33 5.055448E-32 2.4024678E-30
victory 0.9182437 0.104298875 -0.27473786 -0.033922482 -0.049172018 0.1703073 -0.07933923 -0.015981708 0.049729332 0.004221917 0.0944219 -0.025083572 0.05366342 0.0044990513 0.028770786 0.02608689 0.02539284 -0.017643558 6.216469E-4 0.0015344241 -0.034123506 0.0026715815 0.04292704 -0.023018016 -0.006873977
bishop 1.0492939 -0.123410925 0.07982813 -0.0057894373 0.21690743 -0.022954928 0.12349788 -0.1604073 -0.0368033 -0.025410457 -0.002599462 -0.013858404 -0.030435957 -0.060388636 -0.026893295 -0.038489964 -0.0329943 -0.0414072 0.030752035 0.022389486 0.011308525 -0.02306182 -0.03493634 0.0045726416 0.019565009
country 1.1644329 0.34375903 0.0872514 -0.08033615 0.016094308 0.0550829 -0.04332872 0.020309072 -0.0018605447 -0.09763042 0.059580274 0.020072302 0.011456806 0.003998293 0.07089739 0.01096909 -0.0016562713 0.033482432 0.008216182 -0.046547007 -0.0066489712 -3.6666702E-4 -0.012173982 -0.001278681 -0.017185254
sign 1.0181252 0.04488683 -0.2674707 0.12760065 -0.15336493 -0.11594782 0.08538069 -0.06008549 0.048425585 -0.01368499 -0.035984226 -0.0087611955 -0.06098939 0.007628966 -0.0078934515 0.025527487 -0.05326415 -0.0073099765 -0.0031672413 0.007437862 0.024890546 0.011346503 0.019439789 -0.042344745 -0.00875554
proximity 1.2039267 0.028314715 0.20329528 -0.090086274 -0.39140454 -0.13047113 0.1641912 -0.05086843 -0.16819313 -0.066471115 -0.036977984 -0.019917563 0.09402956 -0.048139952 0.029958293 0.013501708 0.054387353 0.010654977 -0.011513505 -0.038398027 -0.08567814 0.009045777 0.0019710613 -0.067634836 -0.011302991
earning 0.8488395 -0.1749891 -0.082185745 0.013524819 -0.012660712 0.04364301 0.025185117 -0.06304568 0.081222706 0.03960104 -0.030598572 -0.051400058 0.05643799 -0.05936147 0.0016396685 0.011067111 0.049746122 0.06746911 -0.026107738 3.3761092E-4 0.03254883 0.069813356 -0.025588244 0.068777904 -0.082511045
Harvard 0.0 0.0 0.0 0.0 0.0 0.0 0.0 0.0 0.0 0.0 0.0 0.0 0.0 0.0 0.0 0.0 0.0 0.0 0.0 0.0 1.1E-44 3.42E-43 2.128748E-39 6.009415E-38 5.839425E-36
similarity 1.1077546 0.42770258 0.11008429 -0.14732695 -0.06848481 -0.18695116 0.20074905 -0.011301098 0.032277122 -0.084309705 0.028251134 -0.064299464 -0.10244273 -0.04524527 0.013935626 0.08210151 -0.070715435 0.009046602 0.03459214 0.056757074 -0.038904946 0.07242339 0.03351515 -0.09205655 -0.09929832
example 1.0947621 -0.44212845 0.13228339 -0.08546726 0.2354597 -0.081470594 0.15362431 -0.38636416 0.5621912 -0.059389967 -0.13487929 -0.022021776 0.085248925 -0.011486547 -0.06031005 -0.07865081 -0.039994933 -0.042787984 0.04948381 0.13571471 -0.053905856 0.068471014 0.009386193 -0.011757763 0.010908086
day 1.0229181 0.105396755 -0.09745602 -0.017020091 0.058681052 0.023674613 -0.007447966 0.012893464 0.044425312 0.11225817 0.033031095 -0.013478096 0.019243086 -0.018642383 0.015820617 0.011641056 -0.024566371 -0.032517277 0.023324491 0.006787364 -6.9693255E-4 0.0053259092 0.0035424014 -0.0023335232 -0.0012081244
gem 0.9689071 -0.16985758 -0.34619135 0.019621836 0.10741789 -0.054384254 -0.09950486 0.0040296037 0.01494111 0.07760458 -0.035424042 -0.105310895 -0.060620613 0.029316342 0.12196355 -0.07955864 0.023825372 -0.0052995523 0.02201735 0.018540386 -0.037742365 0.01845348 -0.029608464 -0.03520173 0.020526316
internet 1.0346625 0.13473573 0.12260605 -0.13512228 -0.039711084 -0.037846923 0.025278501 0.11123287 0.02340693 0.09649852 0.0021388324 0.03944871 -0.018111492 -0.004664411 -0.025365958 -0.019035257 0.020446952 -0.038629904 0.008596255 0.012875407 0.012194904 0.010920682 0.011768424 -0.006014752 0.011848829
rook 0.9771043 -0.08324037 -0.6260678 0.09617034 0.25383365 -0.016475154 0.26241648 -0.06632028 0.0508607 -0.21452163 0.019188028 0.15707755 -0.2381457 -0.10586497 0.05324321 0.39819235 0.2593133 -0.21216398 -0.046650626 -0.15487266 -0.051683843 0.20979989 -0.23034489 0.2183979 0.19358243
galaxy 1.0612732 0.2003136 0.038981207 -0.07209942 0.06143639 0.077858716 0.07064018 0.011078597 0.029861689 -0.071571365 0.025693184 0.029423596 0.04887625 -0.049504347 -0.029263083 0.023560496 0.0101656215 0.03153812 -0.0032785377 0.03822485 -0.03485023 0.009259707 -0.0045123273 -0.0029294984 -0.01953883
insurance 0.8513839 -0.11314431 0.07704501 -0.081157476 -0.10754706 -0.035229146 0.04224322 -0.0034944087 0.078730315 -0.0031519902 -0.028742855 -0.038183432 -0.012121568 -0.0128437355 3.0011608E-4 -0.010235711 0.023380402 -0.0077848304 0.013576725 -0.0052573276 0.017426025 0.004692608 0.007387522 -0.0064665764 0.0023233888
sex 0.8791478 -0.14305069 -0.029831406 0.009947334 -0.11224031 -0.05123913 -0.07906819 0.02910688 0.038827136 -0.0030403547 0.03807206 -0.014545353 -0.006089455 -0.010207347 -0.039367538 0.051630653 0.0059728706 -0.03507728 -0.009180862 0.019953724 -0.022749223 -0.016479954 6.424836E-4 0.0011904733 0.020433346
evidence 0.89805317 0.13752235 0.063135944 0.092280045 -0.12379619 -0.17821755 0.006964915 -0.09511671 0.020562854 -0.02003995 0.02181224 -1.1836135E-4 -0.19531947 0.012565826 -0.0570194 0.06507709 -0.14181405 0.019409994 -0.01687707 -0.026355043 0.08671984 -0.024127793 0.027404118 -0.0010396824 0.0035459674
landscape 1.1826707 0.17696601 0.068968855 0.027092844 0.06971076 0.0011280166 -0.01280139 0.13756429 -0.02883321 -0.004916519 -0.017441545 -0.0022246316 -0.025834586 -0.009445016 0.039500672 -0.020533586 0.022267196 -0.02444874 0.009604687 0.0021193994 -0.006898825 0.0014944442 -5.54718E-4 -0.016347572 -0.008301146
lad 0.9937403 -0.12001939 -0.3605953 -0.050617214 0.1136327 -0.09917982 -0.056643866 0.018521136 -0.04626353 -0.04752827 0.04679453 -0.03833601 0.0014337397 0.0075506284 0.06645101 -0.07385746 -0.0353359 0.0505733 -0.046002578 -0.055027492 -0.028887 -0.024479352 -0.081011675 9.397929E-5 0.010459714
asylum 0.8494743 -0.037353307 0.10242966 -0.03954918 -0.18777074 0.109326035 -0.16892897 -0.04319177 0.06653103 -0.05769819 -0.017316796 0.035580754 0.03144247 -0.0088287955 -0.056233887 -0.0046460256 -0.036644395 -0.026089132 -0.0163481 0.01778386 0.03818582 -0.040927313 -0.032546386 0.01902495 0.04833345
area 1.1992455 0.32113272 0.0653187 -0.02927875 0.03265338 0.22899531 -0.12945798 0.003537889 -0.05056261 -0.08850961 -0.07741847 0.069155134 -0.044791717 -0.034889907 -0.017064765 -0.02368979 -0.01536577 0.005311903 -0.00769346 0.049683478 0.022356935 0.013191279 -0.021734409 0.009314361 0.0076441406
disability 0.90490305 -0.27616626 0.015496205 -0.035497557 -0.07291421 0.026758466 -0.05476683 0.10201547 0.060610555 0.029980056 0.034951795 -0.04690238 -0.0011131543 0.019668566 0.06762601 -0.010253205 0.017317789 -0.041276354 0.0043902956 -0.008584801 0.041022282 -0.011797746 -0.009234322 -5.739314E-4 -0.0032705
experience 0.9151128 -0.09819456 0.0034448244 0.050403565 -0.08152687 -0.05085821 -0.07409229 0.01337343 -0.011772537 -0.017406147 0.06575188 -0.0047443295 -0.05145836 -1.5701025E-4 -0.016754288 0.0345292 0.016729286 -0.0018494559 0.0029461475 0.010552288 -0.0032434408 0.007836373 0.0067856824 0.012363932 -0.011867713
discipline 0.94597495 -0.18196808 0.04265283 -0.0030011788 -0.18115687 -0.073094524 -0.07471363 0.10181545 -0.018161697 0.003036108 -0.0026876612 -0.024502201 -0.0045387424 0.031385045 0.005294673 -0.0050782803 -0.005532813 -0.040143106 0.022972118 -0.018502725 0.009947344 -0.023321578 -0.01202021 -0.0025504278 0.009232984
activity 0.8859973 -0.058523588 0.07144331 0.080586925 -0.12449115 0.049207967 -0.12820648 -0.07256759 -0.0066601494 -0.008687213 -0.048112366 0.008168848 -0.04187105 -0.019718086 0.007331863 -0.00693859 0.008348827 0.00676136 -0.011097639 -0.02484122 0.0049703484 -0.013101525 0.009177766 3.5934735E-4 0.015992869
quarrel 0.81992686 0.12740487 -0.38457593 0.10880904 -0.0013767711 0.0827184 -0.16860555 0.14431834 0.020993816 -0.013834387 0.22703901 -0.059485666 -0.15175728 0.057973474 -0.061260466 0.11103062 -0.0110728 -0.05777653 -0.011045722 -0.0025767598 0.05860288 -0.026378937 0.09718239 -0.014570057 -0.044580698
population 1.1810626 0.21066287 0.12837347 0.17765763 0.044939246 -0.03278167 0.049202874 0.027053757 -0.015023336 -0.01507393 -0.0065574897 -0.06195472 -0.025764616 -0.03697982 0.0631704 -0.013301469 0.041533265 4.9955724E-4 -0.011463217 -0.013459128 -0.01350075 0.016948367 0.0039982535 -0.006063315 -0.0105898185
music 0.98231953 -0.13409695 0.14454375 -0.06301846 -0.008071321 -0.03583889 0.006851728 0.020181045 -0.015086858 -0.008743414 0.0028979825 -0.0065280665 0.0067493063 0.007158804 5.006052E-4 0.0099933315 1.4564583E-4 0.01187738 0.0037342478 -0.0073685683 -0.019249426 0.006654712 0.0071857595 -0.00155944 0.0014343563
law 0.98932904 0.06777639 0.023170475 -0.022013756 -0.007488045 -0.043693915 0.010515537 0.0089480495 -0.01188046 -0.015310844 -0.031857274 -0.025248112 -0.051667918 0.0023968327 -0.004084965 -0.005237222 -0.013901281 -0.026321892 0.006743995 -0.013773946 0.025490368 -0.0132047795 0.0044457796 -0.015246659 0.011356787
five 0.84738874 -0.04164876 0.098017335 0.0041039437 -0.054265156 0.114074804 -0.051685918 -0.062005717 0.039065186 -0.022959506 0.0015948791 -0.0109651 0.0074539185 -0.05635721 -0.037629735 0.049313273 -0.017093033 0.012698493 -0.0053730085 0.032088216 0.0043325913 -0.012481596 -0.021314327 0.016577747 0.009246537
decoration 1.1656693 0.15854666 0.17291486 0.11665343 0.1332105 -0.108082265 -0.0372255 0.22559425 -6.6791347E-4 -0.047927044 -6.6470244E-4 -0.033833142 0.05801595 0.113033704 0.01963465 -0.0030696937 -0.051090848 0.018190185 -0.028065756 0.021014761 -0.07636177 -0.03600782 -0.047640722 -0.01814066 0.08834293
communication 0.9642972 -0.23606493 0.14037359 0.050674938 -0.054679815 -0.03856663 -0.011560389 0.08447156 -0.009556202 -0.02550317 0.006557714 0.013351222 -0.04517579 0.0040098205 -0.043436546 0.026995528 0.030165683 0.011595955 -9.124015E-4 -0.017658046 -0.03573456 -0.019209953 0.01342363 0.0011879237 -0.018400552
maker 1.0292004 -0.05470526 0.13222289 -0.021416217 0.19326393 -0.024998402 0.17784229 -0.04880667 0.017465986 -0.031622596 0.004618849 0.003983476 -0.002328421 -0.034929648 0.0492281 -0.02795789 0.051077407 0.04212693 0.022970594 -0.038005203 0.013798618 -0.007469152 0.027109947 -0.003251546 -0.012726449
sea 1.0890743 0.1518457 0.12654139 -0.044999484 0.017997744 0.07347737 -0.009504876 0.06533609 -0.05141408 0.017526407 -0.055254217 -0.02529239 -6.4197846E-4 -0.014634187 -0.021810984 0.008468703 -0.007568395 -0.0076906667 -0.023356266 0.024371766 0.0048370715 0.009808068 -0.009232647 -0.0011575072 0.009582777
departure 0.966228 0.13428108 -0.025523001 0.07946796 0.050176598 -0.05223828 0.0434658 -0.05998689 0.031456307 -0.038654994 0.23792195 -0.0599004 0.074423105 0.016734274 0.03388801 -0.042137578 -0.02777064 0.084557205 -0.061428152 -0.03271203 0.04751791 0.0195051 -0.0031401077 0.08205879 -0.0033599094
laboratory 1.0595202 0.055340137 0.03521882 -0.063207075 0.04174367 0.15613534 -0.013600595 -0.0405073 -0.026616504 -0.056823436 -0.06328139 -0.006360173 0.0070749116 0.05096421 0.0050061913 0.02848116 -5.0572955E-5 0.019284979 -0.03708089 -0.0070369877 0.040595304 -0.0054267524 0.008096964 -0.0078106355 -0.011098182
game 1.0740664 0.23045862 -0.038638745 -0.04655671 0.035661742 0.10215032 -0.07809447 0.03788032 0.016292412 -0.027977485 0.03500574 -0.026423935 0.018034944 0.002586708 0.018801639 0.02686685 -0.017255997 -0.0016625578 0.02106024 0.028888427 -0.02610842 0.010157677 2.9479337E-4 0.0020667133 -0.0075898184
peace 1.0145699 0.018048555 -0.038497046 -0.021766646 -0.12714185 -0.025227007 -0.06721152 0.050922822 0.007090359 -0.03227378 -0.034554258 -0.007866015 0.016240593 -0.009350616 -0.051571798 0.033255838 0.017636616 -0.046238054 4.0570235E-6 0.010260231 -0.024721984 -0.028552635 0.010295112 -0.021039844 -0.009920983
CD 0.0 0.0 0.0 0.0 0.0 0.0 0.0 0.0 -0.0 -0.0 -0.0 -0.0 -0.0 -0.0 -0.0 -0.0 -0.0 -0.0 -0.0 -0.0 -0.0 -0.0 -0.0 -0.0 -0.0
arrival 1.0734352 0.2660617 0.17848651 0.20137727 0.07859747 0.035083544 0.034291767 -0.07200442 -0.021878116 0.06688687 0.19183671 0.0018336802 0.042748358 0.022994172 -0.019817209 0.041359004 -0.016050555 -0.004015037 -0.018234579 0.018216286 7.925413E-4 0.0243632 0.044616215 0.012083129 0.016369415
approach 0.94868565 0.022661915 -0.21004447 -0.12538815 -0.20294471 -0.15388528 0.044712443 -0.06175896 -0.015143835 -0.020929432 0.0013368891 -0.027815653 -0.024579966 0.01842435 0.020600112 -0.023252921 0.0100042 0.013404039 0.021048784 -0.03801841 -0.03067877 0.010231461 -0.00616482 -0.023803342 -0.03205033
boy 1.0416261 0.0020515914 -0.27552956 -0.016949605 0.14240018 -0.01907324 0.032782197 0.035616066 -0.028364 -0.038760312 0.062200744 0.026604146 0.032870676 0.0011768038 -0.04801501 -0.02124811 -0.040566795 0.004390604 -0.0069376444 0.015395755 0.006722126 -0.05120302 -0.033830035 -0.013181811 0.012049274
viewer 1.0161247 0.2349708 -0.011697119 -0.07974948 -0.037206657 -0.09856113 -0.006324246 0.13169944 0.016763253 -0.00615038 -0.014247826 -0.043034032 -0.0497931 0.031668443 -0.017883955 0.020724118 0.0065614223 -0.0314202 0.04953628 0.048836716 0.008573791 0.041748945 -0.0028838576 0.031291924 -0.026013978
popcorn 0.89420426 -0.26836818 -0.011501092 -0.07543576 -0.0043489 -0.04728146 -0.016158216 0.013418893 0.052364465 -0.011284518 -0.0470816 0.024938107 0.0041342373 -0.007866692 -0.04024015 0.077789605 0.039896935 0.0451418 0.031897206 0.010482707 -0.023759242 -0.015004964 0.050428566 -0.0037816174 0.0027692746
basketball 0.9194722 -0.042391572 0.022773448 -0.04673662 0.008798423 0.057009023 0.0016287827 0.009775864 -0.027657636 -0.028163465 0.09718288 -0.029297411 0.038911022 0.04439769 0.05713775 0.02122656 0.030676758 0.016631762 0.0063744714 -0.06143639 -0.017424477 -0.015631 0.011240047 -0.010987685 -8.30094E-4
cup 1.0106843 0.24610665 0.05612204 -0.062315192 0.025997175 0.17382455 -0.08601033 0.025047055 0.017759541 -0.04000185 0.038353853 -0.013827731 0.048104584 0.009432186 0.036596533 0.0393373 -5.2638416E-4 -0.0013430377 0.0071867034 0.002578872 -0.043937728 -0.0015549313 0.01059899 0.0011350454 -0.011510758
concert 0.9542471 0.056297038 -0.19587074 -0.043917265 0.050251324 0.121863574 -0.07679114 -0.006131888 0.0057071545 0.009842558 0.01800593 -0.014149273 0.05904143 0.07912233 -0.022633886 0.05467462 -0.0049722325 0.007386368 -0.043229368 -0.048857976 -0.045406193 4.349246E-4 0.039696045 -0.010511184 -7.465055E-4
reason 0.9250564 0.1611474 -0.031702403 -0.15376535 -0.09942395 -0.2195202 0.04920306 -0.020552311 0.31335098 -0.09996386 -0.031915635 0.00507523 -0.059922323 0.093896486 -0.03970504 0.07858941 -0.15660875 0.035642236 0.0061798585 0.04062693 0.021255627 0.007620622 -0.0129174385 -0.025833758 0.00794839
deposit 0.94912547 -0.009485487 -0.057189733 0.019853538 -0.019108566 0.022992497 0.101734646 0.019083247 0.024027813 0.04936753 -0.050081026 -0.021287516 0.0035895118 -0.06453024 -0.010750203 -4.9657346E-4 0.058111414 0.02861643 -0.01262519 -0.0060295733 0.009005316 0.009391819 0.0319745 -0.008061709 -0.0040341425
automobile 1.0611038 0.030536644 0.18446499 -0.014211983 0.07416407 0.07052684 7.379533E-4 -0.011280907 -0.025612218 -0.015587824 -0.055109173 -0.019490218 -0.03909069 0.0069517246 -0.02383131 -0.016880797 0.05261153 0.034683768 0.020814275 0.017792637 0.027421592 -0.033299167 -1.39898E-5 0.01920893 0.0048640794
street 0.9443336 -0.032760784 0.065060295 -0.113500655 0.067555755 0.086228676 -0.006463902 -0.029304868 -0.0100718355 0.16151722 0.0063402955 0.049084026 -0.015058094 -0.038919132 0.015866978 0.015991269 -0.005232794 -0.02689633 0.011707255 0.0028700694 0.027603988 0.014510288 0.019802993 -0.014942503 0.03122685
liability 0.8989623 -0.0690901 -0.09239468 0.0054554334 -0.12147103 -0.0054016504 -0.017184896 0.030535098 0.13157097 0.0018881911 -0.014174575 -0.017520497 0.015608538 0.03795481 0.042034604 -0.037553854 0.034666166 -0.0035834855 0.0022587539 -0.016952945 0.022015199 -6.802384E-4 0.030793402 0.009317425 0.02093635
rock 0.9546333 -0.117510796 0.041737966 -0.021275565 0.061546735 -0.09183771 -0.0375804 -0.033759233 -0.045150694 0.012299514 -0.019146834 0.010555949 0.035046004 -0.012405252 -0.012351908 0.0019454041 0.006998657 0.019452538 -0.010960678 -0.016870726 -0.027535222 -0.005162138 0.0032330493 -0.009155595 0.02057475
calculation 1.0370877 0.01412747 -0.060967226 0.15135987 0.017627541 -0.08735557 -0.017106256 -0.021751573 0.09319136 0.060914394 -0.004369218 0.03285862 -0.073462404 0.01988443 0.06035077 -0.036185753 -0.024635134 0.002066133 1.8070923E-4 0.0036481372 0.050455287 0.051844735 0.027859073 -0.035250563 -0.01307616
stroke 0.9701467 -0.2052424 -0.18703394 0.1244222 0.03223294 0.04787599 0.0088650435 0.033887576 0.008808846 0.07810634 0.029273955 -0.083974175 -0.0070294924 -0.014301265 0.012522814 -0.010413168 -0.025494136 -0.026059454 -0.006652727 0.021463264 0.016598042 -0.008750957 -0.022341618 -0.009163335 -0.011637553
operation 1.0372009 0.15665165 -0.08030665 -0.0074686087 0.002849441 0.07780463 -0.06445548 -0.019253513 -0.014693419 -0.030698983 -0.025922446 0.028371003 -0.03407154 0.0010429302 -0.04125032 -0.07646708 -0.003510897 -0.009287547 -0.0033062645 0.009544535 0.010739871 -0.005256536 -0.0030444134 0.0075321095 0.011983302
abuse 0.9578226 -0.06906617 0.22413367 0.26491898 -0.14856061 -0.035724476 -0.053673994 -0.0024474394 -0.030775053 0.026551278 0.022406291 -0.08227767 -0.018863576 0.020743959 -0.014923246 -0.01552775 0.0036752147 -0.03508025 -0.018810462 0.009233139 -0.003743966 -0.0199805 -0.012311422 0.016558927 0.03472457
zoo 1.0744628 0.15714577 0.017904066 -0.17597353 0.11221976 0.11179179 0.055130288 0.0023358532 -0.048539966 0.0025448622 -0.02559103 -0.04488206 0.02269328 0.10092329 -0.06503925 0.04922691 -0.015680782 -0.03283158 -0.020867435 -0.027829831 0.019412817 -0.012299593 -0.0019828405 0.016883189 -0.012055356
ticket 0.92314994 0.026942054 -0.1281185 -0.06998986 -0.06287649 0.0033868207 -0.025149075 0.037056714 0.083541915 0.0675738 -0.01130661 -0.023732916 0.035058405 -0.013534316 0.005270139 -0.0061200904 0.0132182725 -0.02560836 0.00795155 0.01214038 0.0029692363 0.012179383 0.008316339 -0.0028228376 -0.002040665
bread 0.97508997 -0.3781514 0.17180432 0.017003942 -0.018392613 -0.027480803 -0.015860857 0.071753025 -0.009940273 0.007333316 0.0069859573 -0.007899268 0.007049198 -0.040245663 -0.016445085 0.024689864 0.024302216 -0.014386529 0.03142034 0.027920298 -0.047109142 0.01366519 -0.0041606957 -0.005699986 -0.012631478
report 1.0503311 0.19319192 -0.1045772 -0.15503298 -0.014366505 0.009868745 0.0068667457 -0.042105947 -0.0051315487 0.0520128 -0.02051689 -0.033427678 -0.06275397 -0.047906477 0.037268847 -0.04696843 -0.009599608 -0.048829786 0.07033379 -0.06579156 0.022787642 -0.042522613 -0.03387279 -0.001740008 -0.016861822
smile 0.91275674 -0.38061392 -0.34626105 -0.031534307 -0.024715729 -0.062895946 -0.14056127 0.1856439 -0.034278497 0.05800393 0.1557699 -0.06897783 -0.034170195 0.022195624 0.014598746 0.053132523 0.06294492 -0.08965323 0.031084241 0.020985205 -0.041797943 -0.015397036 0.0384782 0.009080574 -0.060053296
lesson 0.95848054 0.028607138 -0.36289662 0.021931693 0.015207916 -0.039241884 -0.041466776 0.0058413534 0.10337157 -0.016146535 -0.041242655 0.042720422 -0.047932826 0.05657639 0.044673104 0.013942742 -0.07880535 0.050359752 -0.031955842 -0.012308476 0.039947733 0.036245182 -0.030451024 0.005018425 -0.0057317507
hill 0.94324654 -0.13778631 0.08273817 -0.12830074 0.054765325 0.052183915 0.0023898715 -0.09931719 -0.017761735 0.16814487 0.019000782 0.05173102 -0.007926445 -0.031606212 0.010426697 0.0061791698 -0.014150128 -0.06387285 0.012900848 -0.013342061 0.0077181403 0.014821103 0.009744792 -0.018325048 0.024423761
preparation 1.0694656 0.048862416 0.119408354 0.07316138 -0.098666705 0.16363895 -0.14403704 -0.07036761 0.31585056 -0.16318543 -0.04454407 0.082486935 0.14531928 0.016530389 -0.10447121 0.03708977 -0.05256779 0.015357815 -0.004137446 0.048789766 0.013018574 -0.023768622 0.019075207 0.0037033316 0.00996004
Yale 0.0 0.0 0.0 0.0 0.0 0.0 0.0 0.0 -0.0 -0.0 -0.0 -0.0 -0.0 -0.0 -0.0 -0.0 -0.0 -0.0 -0.0 -0.0 -0.0 -0.0 -0.0 -0.0 -0.0
recommendation 1.007059 0.17635033 -0.19282115 0.010693512 -0.023410585 -0.07848179 0.084518634 0.01899506 0.07430966 0.047179256 0.07574789 0.03152398 0.0010892993 0.016579457 0.018088028 0.023068335 -0.01902824 0.023782136 -0.022778492 -0.073313616 0.029908272 0.006232007 0.05323552 -0.021664767 -0.018750913
canyon 0.98636425 0.07052099 0.050060403 -0.06002531 0.06637164 0.13787043 -0.030086624 0.025731549 -0.06797677 0.012834825 -0.047976237 -0.03279552 0.0030323935 0.012375091 0.022454415 -0.0061930614 0.0074646533 4.493254E-5 0.008843891 0.019020665 0.012590913 0.009762477 -0.009461479 0.003257559 0.019091912
museum 1.220231 0.27812374 0.1343728 -0.006915991 0.14968067 0.09841416 0.040898796 0.017892765 -0.06509907 -0.010300625 -0.046027176 -0.03410734 0.036036383 0.08807921 -0.016340986 0.03468966 -1.36287335E-5 0.0023255576 -0.034027796 -0.013128324 -0.008087971 0.018595617 0.008571521 0.0046801255 -0.004196326
board 1.1055856 0.24374811 0.10516648 0.029681394 0.025947232 -0.05833426 0.114244565 0.036264885 -0.004542541 0.13999291 0.064873666 0.03713074 0.003161044 -0.032477938 -0.012868823 -0.006082553 0.030103618 -0.04501914 0.007761936 -0.026883582 0.014388911 -0.016890207 0.020768374 -0.016160812 0.021816434
health 0.91886425 -0.08301764 0.120838895 -0.027370678 -0.06474527 -0.02136995 0.020566383 0.02121436 0.02659368 0.0038837793 0.0048796446 -0.018482778 0.0062021515 0.010930759 0.003480829 0.0023161862 0.023284419 -0.02131377 0.026302751 -0.025948491 0.032616254 -0.030557785 -0.004315744 -0.005493157 0.003706197
depression 0.99280035 -0.10199924 0.106265135 -0.009927991 -0.016786609 -0.01705311 -0.031539273 0.10852664 0.012426697 -0.00902359 0.0054407003 -0.08168874 -0.05884009 -0.022951428 0.007072917 -0.00798773 -0.012058552 -0.037478205 0.027712049 0.05179563 -0.015540592 -0.014721191 -0.045102507 0.018744688 -4.8609992E-4
row 1.0860969 0.105252944 -0.4161629 0.10476844 0.022997534 0.3775532 -0.16840944 -0.0077520143 -0.027816491 -0.059094034 -0.0446587 0.10142023 0.031412948 -0.07494901 0.027987177 0.014941305 -0.015364399 0.00971573 -0.043717656 -0.0075894413 0.038225107 -0.01053235 0.016136268 -0.06976463 -0.022831406
category 1.0645154 0.17044981 -0.038842764 -0.040632926 0.07893624 0.09450239 -0.17386506 -0.07437078 -0.010052451 -0.07767177 -0.10987472 0.0871089 -0.029332567 -0.05149187 -0.008084156 0.036150232 -0.02181398 0.040004525 0.0041221925 0.0069759856 0.017680548 -0.00954654 0.013459387 -0.0154614765 0.0013142
criterion 1.0234597 0.36341456 0.050615303 -0.08278756 0.20242696 -0.30856568 -0.086233005 -0.015291341 0.30105665 0.12932052 -0.083522454 0.027641857 -0.06900756 0.14589423 -0.038966086 2.6558293E-4 0.005867516 0.102491714 -0.04662731 0.08220756 -0.051311255 0.02092932 0.004405464 0.01128581 0.13414134
avenue 1.0111223 -0.33102477 0.20366848 -0.15641545 0.16849105 0.106863536 0.06155771 -0.17450532 -0.04988886 0.2122903 -0.04206597 0.047244303 -0.008475994 -0.015283637 -9.4499794E-4 0.033422135 -0.020434393 -0.023622403 0.013907791 0.032688264 -0.0011732797 0.054113824 0.02780278 -0.023429306 0.014582039
hypertension 1.159554 -0.43534404 0.2544976 -0.14345835 0.05907629 0.038741417 0.1082119 0.059787728 0.05849735 -0.0643071 -0.06461458 0.0454681 -0.032959916 -0.07677713 -0.062012643 0.0033891015 0.00807756 0.0034832566 0.042459935 0.0735422 -0.03086862 -0.020422252 -0.055184994 -0.017013425 -0.016742462
month 0.861351 6.8655156E-4 -0.11427119 -0.032199543 0.01283915 0.09795968 -0.03410437 -0.06897011 0.095699534 0.048275568 0.0067290757 -0.09907489 -0.040472504 -0.031436946 0.0716689 -0.0070293015 -0.060819797 0.06831946 0.13887711 -0.0702138 -0.12691987 -0.06856375 -0.111227386 0.06895261 -0.11387419
delay 1.0307218 0.20742364 -0.09916586 -0.03897648 -0.15499398 -0.01665752 0.0614829 -0.01908901 0.018956032 -0.040737957 -0.047999453 -0.009487895 0.014495374 -0.042308394 -0.03570376 -0.0018302826 -0.015525158 -0.0171297 0.022337623 0.002121492 0.0058008637 -0.011776924 0.0011918738 -0.018224807 -0.0062342356
shore 0.9781484 0.07899963 0.05458577 -0.19715779 -0.35702848 -0.08054264 0.14228646 -0.106916495 -0.10475398 0.096820444 -0.026239099 -0.06374615 0.042588044 -0.0802272 0.022358298 -0.03439836 0.041423324 -0.026202068 0.0051686545 0.018857837 -0.03325059 0.051020797 -0.009990436 -0.024235014 0.0011345367
credibility 1.0721542 0.13523255 0.0852995 0.0120529495 -0.0987751 -0.16491477 -0.043892857 0.018450303 -0.04900066 -0.029998874 0.100479014 -0.0014674679 0.0139072845 -0.009483074 0.009857737 0.027917422 0.0072653247 -0.005125938 0.0012245968 -0.032130435 0.008138571 -0.0046435846 0.026603863 -0.011028367 -0.007932674
series 1.116602 0.1204105 -0.14062104 0.33499542 0.036616944 0.0639814 -0.0491154 -0.04233052 -0.025533257 0.0144187175 -0.03076692 0.013342673 0.04554655 -0.060414642 0.0028815723 0.0037742094 -0.0029114236 -3.4298402E-5 -0.024034461 -0.002937024 -0.026014185 -0.005942774 0.004622174 -0.033789553 -0.00445005
television 0.8905594 -0.14886165 0.033568144 -0.042109545 -0.013443617 0.018471763 -0.045293726 0.005093818 0.019086527 0.14081699 0.05140779 0.07225131 -0.0034606834 -0.023689251 0.0024302704 -0.017068902 0.0028810387 -0.04720233 0.017919816 -0.035161823 0.03521926 -0.019647274 0.024193954 -0.017852085 0.020442856
hardware 0.89598227 -0.17952 0.16013512 -0.053226024 -0.12627928 -0.028150372 0.031726465 0.124176666 0.019555163 -0.0022962294 -0.011845947 0.020207787 0.0061884597 0.017120376 -0.005631732 0.02415464 0.024154574 0.025385445 0.018716218 -0.045561623 0.0139610395 -0.0100262575 0.016549146 0.00542712 -0.011982339
development 1.0607082 -0.08867834 0.20003161 0.081100404 -0.05845179 0.021162366 0.006422819 0.06834376 0.0393298 -0.03148102 -0.046352573 0.046689898 0.049215138 0.018984137 -0.021954937 -2.6723536E-4 0.023475997 0.01940156 0.0081332745 -0.026752232 0.01850496 -0.037073772 0.013407046 -0.004393771 -0.004627328
crew 1.0475324 0.1166432 0.05720865 0.004983256 -0.027813079 -0.03778661 0.09754048 0.17343432 -0.040355723 0.0025655734 0.058375817 0.01945152 0.038516935 -0.02076219 -0.07900919 0.0074902764 -0.0056884564 -0.016546657 -0.011490914 5.238147E-4 0.0022967432 -0.024224658 -0.0144777885 0.0051800217 -0.0013527803
ministry 1.1296512 0.22891012 0.12524903 -0.009826357 0.17977256 -0.024712602 0.07023116 -0.02959798 -0.0029063022 -0.02036855 0.037110273 -0.07232465 -0.042562883 -0.017448109 -0.018844703 -0.06469038 0.06358659 -0.120250896 0.06907595 -0.11120978 0.096716 -0.09928266 -0.010846381 0.06353996 0.019668793
holy 1.1947201 0.2421604 0.13723686 0.057903867 0.073808536 -0.031012824 -0.0027703312 -0.012840241 -0.05007816 -0.013524357 -0.049748015 9.6192874E-5 0.030685708 -0.034005333 -0.017612854 0.00419208 0.0015402249 -0.01554816 -0.022451596 0.038889922 -0.01727016 0.006875669 -0.009886526 -0.012836933 0.013620263
closet 1.1097403 0.023776371 -0.14989543 0.08682719 -0.025271572 0.17372976 -0.25319883 -0.012794171 -0.09236232 -0.09431088 0.017767703 0.037001934 0.012806621 -0.015855055 0.01599035 -0.029310104 0.0044244886 0.016499992 -0.013774934 0.043824 0.058404632 0.02093787 -0.029642934 0.028172525 0.0070884405
space 0.9970521 0.063135915 0.037582792 -0.054787155 -0.061147097 0.044926513 -0.013296107 0.028794007 0.018853636 -0.0023036052 -0.035844043 -0.0061124545 0.022886522 0.0038682597 0.011897559 0.005199719 0.013662287 0.0014253127 -0.00317746 -0.0018843785 -0.004647242 -0.0019373969 1.1338607E-4 -0.0016832403 0.008468558
seepage 0.9723238 -0.7036421 0.38695803 -0.37711814 0.17946187 0.04162798 0.07437867 0.32226768 0.008559979 -0.037218507 0.1443854 -0.18996297 -0.35978377 -0.27868465 -0.22207186 -0.09528981 -0.33743593 0.09145051 -0.37138417 -0.079819754 -0.16961169 0.014680028 0.016650764 0.04592906 0.065618806
brandy 0.95679206 -0.47435153 0.18067709 -0.054129172 0.0376698 -0.0032740282 0.0115558095 -0.026777534 0.016655376 0.036714252 -0.017196152 0.06817664 -0.025193617 -0.043217503 -0.046308104 0.038078718 0.05672147 0.016827665 0.06711569 0.05375813 0.035723764 -0.0333247 0.014328671 -0.027525999 -8.2930573E-4
buck 1.0261035 -0.03104219 -0.0901259 -0.16525811 0.017495723 -0.13957131 -0.03947067 7.538329E-4 0.03870056 -0.053111486 -0.056522705 -0.0029199815 0.05981374 -0.032230552 -0.028994283 -0.008207447 -0.0013227856 -0.026174676 0.03691816 -0.010171014 -0.016268848 -0.027056998 -0.02701556 -0.0034873434 -0.004619638
dollar 1.1316408 0.32519528 0.02953359 -0.1345467 0.07424038 0.007472902 0.08704845 0.12974475 -0.010137611 0.024265116 -0.07501692 -0.010510717 0.028547488 -0.047921985 -0.004106106 -0.003984141 0.012966243 0.010173636 -0.01329209 0.031170344 0.00933549 -0.02155883 -0.015233252 0.0013234732 0.0077458103
situation 1.138713 0.26674607 -0.041144013 -0.14261167 0.009320208 -0.05332557 -0.11543982 0.040016197 -0.022900263 -0.048017778 -0.056037772 0.04104399 -0.072671466 0.0071161855 -0.013650425 0.029540539 -0.038557384 -0.021356648 0.03720955 0.012340873 0.009652327 -0.0016269638 -0.022325927 -0.0047082272 -0.0033045197
trading 0.86533546 -0.014856503 0.054430775 -0.06307194 -0.048209224 0.2386895 -0.114158906 -0.152629 -0.0053309253 0.04435031 -0.04314065 0.05300892 -0.016053481 -0.051231395 0.03516075 0.025101697 0.015115151 0.022525301 -0.02750126 -0.042616665 0.007338375 0.017030025 0.05724083 0.006191892 0.017759051
water 0.99144727 -0.086814225 0.12159977 -0.02398415 -0.07242286 0.018874662 -0.0041317097 0.0651138 -0.0138327 -0.003485988 -0.027859464 -0.0031684919 -0.01907128 -0.021656567 -0.005481443 0.005106592 -0.0052475003 -0.006317109 -0.006944532 0.009875372 0.012652351 0.0050867265 -0.010190716 0.0063275583 0.006187429
prejudice 0.9435566 -0.22142571 0.16013457 0.07100038 -0.09883949 -0.06256943 -0.11063359 0.12312764 -0.048519373 -0.011346934 0.0147701 -0.054974023 -0.07944541 0.015380487 0.055514406 -0.008015154 -0.045568366 -0.010374294 0.054659873 -0.037149277 0.02696426 -0.032179322 0.0038815828 0.02557314 0.04143477
star 0.97226447 0.03653989 -0.01812665 -0.07058081 0.11351091 -0.11283663 -0.04384538 -0.012637847 -0.04713357 -0.031932313 0.009432188 0.03159667 0.050851103 -0.0125273615 -0.014324558 -0.005799788 -0.0015008312 0.018527884 -0.0034463517 -0.0059345546 -0.017778607 -0.031169347 -0.0048811776 -0.015356464 0.01963481
movie 1.0754998 0.081571646 -0.07671792 -0.083141 0.12663504 -0.09928051 -0.08480583 0.012208007 -0.018963996 -0.038392525 -0.037158255 0.05184922 0.045972172 -0.013966262 -0.029492686 7.5824343E-4 -0.009962158 0.037893604 0.0018164098 -0.0071624406 -0.029300395 7.442567E-5 -0.004682045 -0.012253101 -0.006927391
marriage 0.9140213 -0.08536966 -0.03594316 0.021418046 -0.13406205 -0.032353256 -0.04733685 -0.032468002 -0.009257583 -0.0053977068 0.05782825 -0.03776998 0.004485644 0.002983222 0.03833737 -0.011104157 -0.0235422 -0.021532869 0.0150830615 0.025926212 0.028335799 4.750867E-4 -0.010294242 -8.33396E-4 0.015565063
flight 0.95912945 0.06036984 -0.1213929 -0.056603488 -0.07851103 0.018314825 0.07144877 0.0025584227 0.020756906 0.119465545 0.013185838 -0.0015941868 0.022033554 -0.044793222 -0.019024277 -0.039108004 -0.011818044 -0.02364218 -0.032693423 0.0055694166 0.009926499 0.0035378751 -0.02236338 0.014785736 0.0152646825
plane 1.0794339 0.25782913 -0.18428229 -0.080233954 0.036737192 0.050287895 0.05584975 0.078413524 -0.019209262 0.06542794 0.04283129 0.033481352 0.012123298 -0.03125696 -0.040421627 -0.017036006 -0.038676158 -0.026254978 -0.014297064 0.005102696 0.047452696 -0.012868228 -0.0076431916 -3.2823885E-4 0.0014011576
accommodation 0.88316834 -0.19950218 0.12969908 -0.06084763 -0.12285105 0.066901594 -0.11180971 0.019729402 0.12753808 -0.03631599 -0.039618712 0.015405515 0.030022128 0.03752479 -0.036142446 0.028648164 0.0192403 -0.0067577288 -0.006959635 0.026148954 -0.034212433 3.6117123E-4 0.011712734 -0.004993351 0.015303575
interview 0.94647866 -0.006334636 -0.19550215 -0.14074267 0.012122871 0.37507883 -0.31132534 -0.29592922 -0.014232589 -0.122875996 0.056730874 0.18530914 -0.26798847 0.034311753 -0.2029155 -0.18558809 0.1919137 -0.06882821 0.051106084 8.126264E-4 -0.018728778 0.0044737402 0.07327603 0.09034927 -0.057954542
archive 1.1076074 0.24444948 0.14070457 0.03570306 0.030399615 0.015454481 -0.01467303 0.052206557 -0.020937225 -0.01695076 -0.019242136 -0.03534332 -0.015958097 0.026716433 -0.017052889 -0.05855728 0.025796797 3.4918374E-4 -0.03385205 8.1972993E-4 -0.0033725123 0.016013253 0.01978763 0.026385043 0.001623238
telephone 0.8924793 -0.20460235 -0.16854972 -0.07724551 0.009058547 0.12439133 -0.109448835 -0.012792383 -0.0073056538 0.02197456 0.0037896167 -0.04697172 -0.0719848 -0.05576581 -0.022809345 -0.049755268 -0.008203292 -0.03911386 -0.026113162 -0.08284981 0.07431612 -0.048374243 0.005177692 0.0024655273 0.030429427
warning 0.91294324 0.049197096 -0.22304882 0.038472846 -0.019282877 -0.09100876 0.049835064 -0.013663826 0.04625934 -0.0031627181 -0.016665678 0.018269356 -0.06424207 -0.016416745 -0.04240568 0.027326334 -0.0388573 0.0058324505 0.0042879567 -0.04459614 0.076201506 -0.03338631 0.037190035 -0.012762043 -0.033543117
hike 0.9644007 0.05587372 -0.28677472 -0.07198199 -0.10755672 0.074664675 0.04517704 -0.052010454 0.066968426 -0.003117738 -0.08025734 0.007100454 0.015683707 -0.05210885 0.014094775 -0.018516291 0.009870613 0.017925624 -0.005882155 -0.0010857865 0.018887943 0.03122385 0.016661549 -0.010517591 -0.027966833
recognition 0.9622722 -3.1200342E-4 0.072993465 0.21638496 -0.10402098 0.0012231431 -0.08012698 -0.06999063 0.07301757 -0.07110218 0.017768255 0.014113588 -0.048524953 0.008598892 0.0170191 0.027488906 -0.047925908 0.038763378 -0.021022758 -0.0070406613 0.05592712 -0.004505434 0.026823713 -0.0020603356 -0.0029151125
terror 1.0248699 0.13557018 0.07303428 0.021461572 -0.03271334 -0.036669236 -0.15763155 -0.03384434 -0.014228851 0.14668328 -7.0986565E-4 0.09972797 0.038839422 -0.056955583 -0.024851892 -0.0060887877 0.009156933 -0.063384734 -0.030402357 -0.026274456 -0.00293003 -0.02300618 0.019691678 -0.018721722 0.0582797
type 0.9895531 -0.007046205 0.08133295 0.53078127 -0.05749581 -0.15488464 0.0044443435 -0.12951545 0.025169924 0.04782743 -0.022016669 -0.023264516 -0.08840299 -0.014796477 0.0059259697 0.04905452 -0.017383097 0.023618052 0.023715124 0.0135688195 -0.01761154 0.0055819442 -0.019826513 -0.006893689 -0.015738793
Jackson 0.0 0.0 0.0 0.0 0.0 0.0 0.0 0.0 0.0 0.0 0.0 0.0 0.0 -0.0 -0.0 -0.0 -0.0 -0.0 -0.0 -0.0 -0.0 -0.0 -0.0 -0.0 -0.0
love 0.87328607 -0.23656991 0.04302661 -0.054164104 -0.06698672 -0.18310939 -0.14178447 -0.06877947 -0.036925744 -0.052524745 0.011171143 0.028161298 0.021521367 -0.011699404 -0.039954074 0.071023166 -0.016989551 0.023019621 0.028775007 0.007574413 -0.038757104 0.027322808 -0.011475229 0.0018248569 -0.012225654
memorabilia 0.964104 -0.1569797 0.044118263 0.1570346 -0.09598181 0.022475123 0.021115843 0.10384348 -0.046754077 0.026739093 0.039912663 -0.06508985 0.019852137 0.02121107 -0.024717674 -0.021360802 0.011084876 -0.0053954027 -0.01677063 -0.04195776 0.02692889 -0.0490513 -0.016521834 0.040618796 -0.010432602
family 0.9996975 -0.04796321 0.012858165 -0.038981292 -0.040711682 -0.024214815 -0.008449071 0.024594573 -0.022632424 -0.057118163 0.13403417 -0.012139203 0.044616953 0.0078506395 -0.023938464 0.011417574 -0.01438345 -0.0023942234 0.008321339 0.031165052 0.039468583 -0.0012773694 -0.007869017 0.017792346 -0.007762203
train 0.9930899 0.028601414 -0.14560802 -0.10962302 -0.17109706 0.016453147 0.07238358 0.050215144 -0.051990528 0.05053433 -0.028827706 0.0136309685 0.03570795 -0.01386087 -0.047635064 -0.0013506016 -0.014641422 -0.01774803 -0.02344095 -0.013325126 0.005458492 -0.020035338 -0.025729373 -0.019594006 0.0056860517
investigation 1.0298998 0.26510072 -0.022849718 0.0423809 0.026486514 -0.021308687 -0.026371116 0.045174226 0.008091133 -0.024256453 0.016986001 -0.011786002 -0.12130094 0.07700224 -0.06359142 -0.16532238 0.055449206 -0.034413975 0.012802583 0.022950735 0.0019204677 0.002911391 0.009652351 0.032144133 0.029829966
credit 0.9065555 -0.013952608 0.051145114 -0.043925382 -0.10644959 -0.035058424 0.026785826 0.040702734 0.040038135 -0.00208858 -0.027425872 -0.032446902 0.0022936824 -0.029244617 -0.0067475745 0.0067632785 0.014899232 -0.0049521285 0.005172168 -0.0082759345 0.008968545 -0.0015963541 0.006427765 -0.0017278239 -0.012889057
lover 0.92375124 -0.32902506 -0.11174617 0.037441984 0.0327334 -0.082884364 -0.06071096 -0.07236233 -0.04093831 -0.03112019 0.28120983 -0.05035276 0.08333104 0.02640706 0.067571424 -0.0040866504 -0.011021605 0.029503988 0.012124364 0.096488096 0.022293184 0.015319849 -0.0064643263 0.0012484691 0.035531696
eye 1.0343513 0.052184656 -0.04958992 -0.06153855 -0.052270167 0.0018738642 -0.029170047 0.010661126 9.5677195E-4 0.06019356 0.106175736 0.06572326 -0.009634191 0.03309793 -0.07129823 -0.06662639 0.0656926 -0.036501642 0.003978619 0.06459928 -0.037339244 0.044091385 0.02208949 0.011530733 -3.2470428E-4
live 0.89426255 -0.08327945 -0.017326849 -0.11577586 -0.20374845 0.02098163 -0.07350791 -0.09258115 -0.065828666 -0.016471472 -0.03594988 0.061088562 -0.0018811986 -0.04288504 -0.024892213 0.066996865 -0.0019924107 -0.0065309503 -0.0022109179 -0.0014676393 -0.0011872235 0.022433696 -0.012913034 -0.014692607 -7.4168004E-4
stove 1.1871789 0.04068708 -0.2988119 0.05033152 0.030351529 0.1399007 0.06194526 0.13505468 -0.006375076 0.052098587 -0.014033349 0.06203925 0.07006703 -0.07108377 0.04917902 -0.031644076 0.025269002 -0.021592848 -0.02574898 0.04778809 -0.011083831 0.052900176 -0.02654811 -0.052768458 -0.0012411843
clothes 0.9101189 -0.29420575 0.12671642 -0.09537709 -0.09122283 0.008561005 -0.05502352 0.009359043 0.021556158 0.0023046013 0.06607221 0.0075853816 0.021701267 -0.012423482 -0.003696572 0.03218953 -0.027496517 -0.027726553 0.022893365 0.013112207 0.03086521 0.025113055 -0.007175772 -0.0045186826 -0.0042680465
bed 0.9880217 -0.13089328 -0.0967508 -0.04043104 -0.1481804 0.14393416 -0.089807 -0.070500754 -0.062350284 0.0068312557 0.053307325 0.031752337 0.024672816 -0.01692836 -0.034327056 0.034594733 -0.029574431 -0.016088407 -0.00529695 0.07037658 0.01406467 0.035963397 0.0019291083 -0.0066441693 -0.009340434
team 1.0338985 0.18310864 -0.041874357 -0.068853185 0.028117742 -0.013365013 0.050936934 0.039070923 0.012974079 -0.03975213 0.09566485 -0.0093437275 0.01912905 0.009394524 -0.0050170454 0.012520897 -0.008511275 7.700562E-4 0.008181612 -0.0046874727 0.014566094 -0.0020522496 0.0036748056 -0.0048769074 -0.0189102
organism 1.108678 0.1002296 -0.08486824 0.10247338 -0.015988678 -0.018618254 -0.007873757 0.04539991 0.01569906 0.02303039 -0.008510966 0.11093995 -0.12782489 0.12632468 0.14249307 -0.12722117 0.046249356 -0.0118532665 -0.030767728 0.055382032 0.0039407285 0.14912274 0.023275565 -0.016160613 0.048036765
arrangement 1.0118622 0.14713985 -0.12577015 0.010697121 -0.0045788563 -0.13060047 0.0018299654 0.04093531 0.009583465 -0.03853087 0.026639368 0.0080703255 -0.11120297 0.035518378 -0.10781165 -0.012469079 0.0400199 0.013294372 0.035402622 0.00607975 -0.0542354 -0.00863598 0.047108248 0.020015752 -0.033134952
liquid 0.9222558 -0.09663788 -9.5454964E-4 0.03695308 -0.06064141 0.022274753 -0.053792723 0.07499823 0.011034279 0.03227308 -0.028379425 0.017971257 -0.013005993 0.008709186 0.010831687 0.007304057 -0.0020718859 0.020325469 -0.011649624 -0.0073780143 0.020949902 0.010160522 0.0013474264 0.010647354 0.019466516
Palestinian 0.0 0.0 0.0 0.0 0.0 0.0 0.0 0.0 0.0 0.0 0.0 0.0 0.0 0.0 0.0 0.0 0.0 0.0 0.0 0.0 0.0 0.0 0.0 0.0 0.0
mother 0.98235595 -0.26401797 -0.003429748 -0.08227147 0.091323614 -0.061314236 0.06330047 -0.11727356 -0.060124107 -0.07764684 0.28963748 -0.01994153 0.07171034 0.020829855 0.027672637 -0.0071604303 -0.047990993 0.02136054 0.031240799 0.06314842 0.045689277 0.020344315 -0.011818655 0.024187297 -0.0019338996
flood 0.9730635 0.011717765 -0.009529475 0.05562214 -0.033671413 0.03176401 0.01875182 0.011415384 -0.017274458 0.018974159 -0.03976914 0.011081787 -0.009361525 -0.037365887 -0.0153535055 0.0062195905 -0.001258964 -0.008528478 -0.009645293 -0.0013984218 0.012475961 -0.0066851703 -0.015038074 -0.0036942214 0.009826883
lawyer 1.0282286 -0.35870242 -0.1656896 -0.19442396 0.27419472 -0.032874145 0.1424069 -0.1824538 0.071067646 -0.058301236 0.12059906 -0.04409357 0.030075636 -0.022700017 0.04108892 -0.07220949 0.0026988925 -0.09080084 0.0789077 -0.024578644 0.07759673 -0.028498158 -0.02694778 -0.008514143 -0.01541258
defeat 0.94586205 0.14699745 -0.08201764 -0.07453055 -0.1818148 0.1336349 -0.012059851 -0.09715582 -0.030077217 -0.02876376 0.06343235 -0.05104785 0.047928486 0.0014278141 0.031423155 0.009016872 -0.025336167 0.017258039 -0.04342143 -0.051680394 -0.028878493 -0.0014370827 0.015480439 -0.015201752 0.0049942066
moon 1.248997 0.30421925 0.10754921 -0.1701823 0.08477209 -0.13068563 0.012509406 0.06958875 -0.03835973 0.10679981 -0.032985542 0.042415556 0.053352624 -0.03404328 -0.016309466 -0.004307562 -0.0011964256 -0.045907836 -0.0054038614 0.006191561 -0.032369252 0.013069406 -0.006494298 -0.02679353 0.024803603
noon 0.79550874 -0.1409484 0.0491719 -0.22688888 -0.0060828626 0.10933684 0.037318446 -0.1334728 -0.052640993 0.32459697 -0.022289457 -0.16902468 0.01839122 0.17263252 -0.0539288 0.13396068 -0.035065576 -0.0128399255 -0.054177765 -0.026107254 -0.010194116 0.03084665 0.06447194 0.05818537 0.06788788
loss 1.0331874 0.036429353 -0.10137016 0.22511306 -0.069887966 0.059371706 0.041343994 -0.052630097 0.0072467565 0.039550465 -0.025785476 -0.07326738 0.0411857 -0.058928117 0.018155817 -0.0028584443 0.056540336 0.05258547 -0.013924627 -0.010134297 -0.023452923 0.006196663 0.026200173 0.04072843 -0.027696988
volunteer 0.91606385 -0.21329841 -0.17417718 -0.013948705 -0.07769385 0.014625673 0.062269025 -0.011696391 0.05750421 -0.0120570725 -0.0152471345 -0.026538592 0.04361368 0.004089764 -0.016535135 0.0050436216 0.020371677 -0.039914653 -0.003683421 0.004414077 0.0013281885 -0.045927342 -0.026597094 -0.030674059 0.016902067
manslaughter 0.98522174 -0.13274008 0.078971274 0.279808 -0.1571617 0.10174057 -0.022630574 -0.09546893 0.062037285 0.06331037 0.09876863 -0.037849564 0.024461726 -0.045895252 -0.047840703 0.008257161 -0.029008573 -0.09449161 -0.020671785 0.06403521 -0.08157311 -0.044954687 -0.016569583 0.010670766 0.10573479
investor 0.9391763 0.005769979 0.009739537 -0.0706715 0.0065329974 0.029082902 0.0041971547 -0.043119777 6.8778766E-4 0.016056316 -0.023264438 0.025768546 -0.038968913 0.043124326 -0.020045249 -0.06497077 0.058535907 0.014979476 -0.007312029 -0.018653233 -0.0021332297 -0.0026699046 0.023352636 0.004318321 0.018471094
war 1.0991937 0.21614538 0.050147984 -0.01942057 0.015511326 0.059646916 -0.10397203 0.035663195 -0.020671707 -0.013821415 -0.009733012 0.0043890867 -8.351072E-4 -0.037396807 0.0011294232 0.0025509233 -0.00828048 -0.023957428 7.244987E-5 0.018656872 -0.003928259 -0.014025964 -0.005205452 -0.002870057 0.0086611165
network 0.9931891 0.036160912 0.03745739 -0.0020406186 0.007817892 -0.04641114 0.04614321 0.019113788 0.006582567 0.02727587 0.007451735 -0.0061813835 -0.0036226793 -0.0054226937 0.035189226 -0.014716316 0.04701683 -9.207623E-4 0.008941175 -0.039826125 0.0067859297 -0.00789787 0.03179096 -0.016598564 -0.0064116996
drug 0.9729203 -0.023237899 0.027361305 -0.015758611 -0.06002369 0.021076703 0.009167982 0.08913956 0.026302937 -0.020447005 -0.0061726808 -8.4052136E-4 -8.192266E-5 0.0010809 -0.010708335 -0.013894396 0.012294141 -0.0037435575 0.00745346 -0.0024815751 0.031071259 -0.038518008 -0.008482024 -0.006017214 0.0106335925
problem 1.0548337 0.20430028 -0.16191189 -0.027615001 0.036047522 -0.1495763 -0.025240285 0.087408714 0.07346746 -0.042530067 -0.015991228 -0.015068241 -0.16774836 0.05014293 0.04266509 0.06088732 -0.046688784 -0.008133631 0.011658858 0.016121129 -0.0026863252 0.024529442 -0.0020319484 -0.023459624 -0.019386329
registration 0.9315204 -0.004606361 0.07195246 -0.057848856 -0.043899152 -0.013273561 0.02023046 0.07156558 0.047001973 0.01693433 -0.005109627 0.044582885 0.015812922 0.01263544 -0.06262433 -0.002191837 0.027212951 0.023602046 -0.022135092 0.015846467 0.0072059743 -0.012091536 0.014703729 0.010785861 0.019000418
troops 0.85860324 0.03762356 0.08888022 -0.013494051 -0.2308503 0.078359246 -0.017787553 -0.05315974 -0.022101758 -0.03981904 -0.035488956 0.012514804 -0.014894166 -0.06754831 -0.055958956 0.014850397 -0.010177093 -6.002464E-4 -0.045280084 -0.020632545 0.047771428 -0.03661651 -0.0323056 0.010184918 0.014141499
luxury 0.96940553 -0.080640435 -0.06906853 0.056317728 0.03191944 0.03687146 0.0024765036 0.017607644 0.020572986 -0.0029866907 -0.02977092 0.019175846 -0.010277546 -0.0078038196 -2.1211687E-5 0.021759417 0.0043035997 -0.004576061 -0.008617686 -0.012271522 0.012383853 9.5334166E-4 0.0124385925 -0.03169274 -0.011442443
FBI 0.0 0.0 0.0 0.0 0.0 0.0 0.0 0.0 0.0 0.0 0.0 0.0 0.0 -0.0 -0.0 -0.0 -0.0 -0.0 -0.0 -0.0 -0.0 -0.0 -0.0 -0.0 -0.0
football 0.9050284 0.0012724677 0.00996964 0.0013584485 -0.020103928 0.018576965 -0.030743973 -0.014999071 0.0045288303 -0.012336736 0.03333293 -0.017452624 0.0073437756 0.024154764 0.039670844 0.020580968 -0.0045148344 0.009244194 -0.002903598 -0.014628789 -0.008867571 3.165243E-4 -0.0030746397 -0.008802982 0.010215696
plan 0.9689962 0.16172698 -0.16239409 -0.09615996 -0.1912035 -0.116615474 0.12142064 -0.03214269 0.023359464 -0.022277318 -0.0014983381 -0.030296355 0.041535426 -0.008560699 -0.0094144605 -0.0112094795 0.02078225 -0.006743353 0.008653379 -0.02414016 -0.0053193243 2.082301E-4 0.013231797 -0.022261985 -0.015230963
hotel 1.1036586 0.081790045 -0.08268468 -0.09016488 0.13226786 0.19226246 -0.0063698245 0.011623197 -0.049364388 0.013876184 -0.05464892 -0.00954074 0.040537152 0.07816879 -0.02368383 0.063855365 -0.027132597 0.003263466 -0.032076985 0.0017479666 0.006848304 0.025245408 0.012557052 -0.011380595 -0.01597415
energy 0.918171 -0.14066951 0.14556585 -0.028095052 -0.08366293 -0.005286268 0.01952104 0.025895443 0.011277757 -0.0036591329 -0.020180894 0.016005969 -0.004080878 0.0024471523 0.0018470567 -0.010819568 0.03524603 0.015476154 0.004418845 -0.03576888 0.02383954 -0.017943837 0.008432032 -0.0022651139 -0.0043393844
smart 0.88549256 -0.22684015 -0.040760286 -0.09641025 -0.00821392 -0.15862302 -0.00938191 -0.035239186 0.017596954 -0.019438855 -0.0330105 0.041283853 4.1734896E-4 0.026570901 0.01278905 0.03328423 -0.021195052 0.024463005 0.021107396 -0.01932499 -0.016143503 0.013571816 0.003066922 -0.03132573 0.012910892
sugar 0.9585653 -0.33956695 0.15056619 -0.03869619 -0.007531115 0.013053897 0.017301766 0.027592828 -0.014584931 -0.0069733663 -0.023568964 0.006133667 -0.028670967 -0.023306075 0.027981654 0.004742866 0.020134535 0.010108351 0.0148814935 0.009965235 -5.5575045E-4 0.014437611 -0.0063495534 -0.0052080327 -0.00531536
clinic 1.0970782 0.11086189 -0.12335544 -0.1092677 0.038641814 0.15384616 0.03734637 0.0051686326 -0.033600688 0.019038934 -0.046796 -0.0840437 0.05707436 0.14336832 -0.06601179 0.0650245 -0.04671033 -0.027826026 -0.041492 -0.0013098968 -2.3210364E-4 8.6095015E-4 0.009647479 0.0011887962 -0.024109125
wood 0.97808933 -0.29200304 0.1603339 -0.08478634 0.11307994 -0.008716886 0.03144773 -0.07487782 -0.008745456 -0.01178125 -0.006609345 0.0050453977 -0.020722726 -0.04655744 -0.0077782026 -0.010016856 0.013229231 -0.0034866452 0.037461463 -0.0050954907 0.013675328 -0.016189894 -0.019097412 0.013440922 0.009012433
fauna 1.0847976 -0.22534753 0.4245527 0.084778465 -0.090641014 -0.034599356 0.0153116295 0.34011737 -0.13531683 -0.086978465 -0.08019836 0.15457311 -0.025625698 0.17059419 0.050324894 0.07683074 0.020032417 0.1545383 -0.004713102 0.021013893 0.011325476 -0.057308424 -0.07547316 0.020833593 -0.0023982492
withdrawal 1.0715936 0.1555133 -0.0068381648 0.23730229 0.03203629 -0.05740709 0.035526063 0.026070444 0.10265431 0.03065325 0.043670967 -0.10372693 0.033041608 -0.05373861 -0.02120305 -0.0917553 -0.016236285 0.025837006 -0.11087058 -0.022801945 0.034112267 -0.012616015 -0.027310656 0.080646485 0.00728026
treatment 0.9044293 -0.06000204 0.07076107 0.052869245 -0.14878304 -0.014765363 -0.06693797 -0.0033691195 0.15628254 -0.006600122 -0.002150878 -0.08379287 0.043661404 0.031138701 -0.021453464 0.012491973 -0.003768945 -0.03954826 0.005547873 0.037123244 -0.004964456 -0.022897448 -0.005367937 0.017735714 0.029515997
equipment 0.94943845 -0.25080487 0.21843384 -0.006897922 -0.18243012 -0.021293925 0.04306791 0.124475956 0.02358112 -0.024640543 -0.025806043 0.02103434 0.025791604 0.019642252 -0.045456123 0.011375717 0.005363969 -0.001820046 0.016885873 -0.024348045 0.0148480525 -0.027385704 -0.008283054 -0.0021539214 -0.011940525
production 0.91898614 -0.054447193 0.11148819 0.066865206 -0.1133071 0.032589506 -0.017989233 -0.04961252 -0.0026911376 -0.010388692 -0.02582484 -0.0025366864 -0.0035825972 -0.011780905 0.008035745 0.0045353407 0.0069204727 0.026953613 -0.014657969 -0.045940075 -0.0070654103 -9.608406E-5 0.027699271 3.3210556E-4 0.0060087712
nature 1.228424 0.21205583 0.25633335 0.26671696 0.037013683 -0.09058893 -0.015320254 0.013323405 -0.050923936 -0.020980086 2.1156827E-4 -0.032930564 -0.040444564 -0.03446604 0.037600677 0.003076823 -3.9102184E-4 -0.009882178 0.017301157 0.01453379 -0.008331557 0.01775193 -0.002486856 1.549799E-4 8.728768E-6
admission 0.87331927 0.016306095 0.040942926 0.0022416026 -0.10872333 -0.11373022 0.04376047 -0.0834235 0.06820558 -0.013858018 0.07368303 -0.038067907 -0.0964052 0.06256152 -0.018367399 -0.06417807 -0.0066435486 0.06663725 -0.0076587 0.014745971 0.031593263 0.038769305 0.04517752 0.051483322 -0.023458164
baseball 0.8739949 -0.08180187 0.008608562 -0.036794547 -0.021305967 0.07775818 -0.042744238 -0.04603174 0.009030235 -0.024028122 0.06627497 4.5729286E-4 -6.809211E-5 -0.0023532645 0.05847674 0.017695043 0.01407706 0.01774327 0.0053748977 -0.04644449 -0.02276904 -0.0066355006 0.020148266 -0.02674629 0.001392666
aluminum 0.9686828 -0.30002236 0.14450344 -0.022431638 0.024773668 0.036534287 0.034886044 0.04842993 -9.7335706E-4 0.0057258857 -0.0076504853 0.06865566 -0.018297931 0.00386762 -0.010232924 -0.048982468 0.044244237 0.047347486 0.010781216 0.0010442785 0.014323589 0.009745717 0.01337075 0.016077036 -0.02325693
interest 0.9120122 0.02742679 0.037621245 0.0257098 -0.12815438 0.12648821 -0.1049686 -0.08445838 -0.018070828 -0.03342021 -0.023601964 0.07118922 -0.043313947 -0.027226906 -0.012663756 0.007798201 0.010018056 0.04337505 -0.033629082 -0.03204505 0.02042967 0.015561355 0.039537877 -0.0023315616 0.0051806816
drink 0.9047939 -0.25770286 -0.050271213 -0.05454504 -0.2464639 -0.054685917 0.03369205 0.05593196 -0.05345599 -0.014212479 -0.028650764 -0.03233478 0.032077346 0.008487244 -0.0026448816 0.037468724 0.0026070243 -0.011627858 0.006254703 -0.001227551 -0.015664924 0.011178766 -0.041399878 -0.0114089 -0.0067442874
year 0.9114908 0.03964155 -0.054206464 -0.009933726 1.8363986E-4 0.087359585 -0.0655489 -0.05137952 0.09269504 0.055111967 0.012817534 -0.10862156 -0.034371115 -0.03175313 0.094167516 -0.007889101 -0.046139926 0.07897208 0.112744816 -0.07018589 -0.1356412 -0.04612407 -0.10516782 0.06657431 -0.0915204
place 0.9862893 0.10349975 -0.10181301 -0.066835865 -0.11024079 0.19307084 -0.14742945 -0.095009364 -2.2131909E-4 -0.046294235 -0.060537778 0.066391654 -0.015018257 0.0058065928 0.015933115 0.055374812 -0.046563663 0.017878668 -0.005985661 0.010346204 0.01283452 0.024442056 0.008904585 -0.027556587 0.012123758
American 0.0 0.0 0.0 0.0 0.0 0.0 0.0 0.0 0.0 0.0 0.0 0.0 0.0 0.0 0.0 0.0 -0.0 -0.0 -0.0 -0.0 -0.0 -0.0 -0.0 -0.0 -0.0
cell 0.84864783 -0.13802952 -0.05968751 -0.009839919 -0.07574734 0.06924242 -0.0372889 -0.017851116 0.0052393028 0.030365918 0.040451623 0.016465781 -0.015717888 -0.020668393 -0.0010864312 -0.013285013 0.0048011565 -0.0028703099 0.0025890926 0.02579989 0.04919063 0.0110208895 -0.0010885192 -0.009542046 0.008226928
journey 1.0386368 0.13374516 -0.11614997 -0.08559951 -0.11891873 -0.084355526 0.06429804 -0.0035321119 -0.00930965 0.077250436 0.057306077 -0.0040396755 0.031565506 -0.02244823 0.011411393 -0.029692475 -0.018662319 -0.0046961256 2.3700226E-4 -0.002671273 0.013292119 0.03158242 -0.0072101853 -0.0012198921 -0.0067493846
graveyard 1.2849575 0.2361875 -0.09787521 0.05732774 0.13933206 -0.02437873 -0.14018978 0.004654239 0.032737054 0.024322534 -0.07471962 0.03411298 0.089206584 -0.022573646 0.006075222 0.008884844 -0.012905424 -0.052770797 -0.022668721 0.042889524 -0.017751783 -0.0024042556 -0.018138848 -0.023058096 0.045200773
disaster 1.0498239 0.1073194 -0.063131906 -0.032753423 0.026976729 -0.0035276264 -0.059616763 0.05148506 0.07231465 -0.0140617145 -0.023733463 -0.06293402 0.009880292 0.010403517 0.030241113 -0.031772174 -0.011290433 -0.027756218 0.008679997 -0.024239447 0.007414547 -0.024027145 -0.012571681 0.018847054 0.026089322
Mexico 0.0 0.0 0.0 0.0 0.0 0.0 0.0 0.0 0.0 0.0 0.0 0.0 0.0 0.0 0.0 0.0 -0.0 -0.0 -0.0 -0.0 -0.0 -0.0 -0.0 -0.0 -0.0
price 1.0216706 0.1707318 0.031356912 0.058281202 0.0058051646 -0.030214055 0.04512453 0.01835114 0.056656152 0.03715779 -0.045855645 -0.06430773 0.017424196 -0.001980975 -0.0015457182 0.010014202 0.024793634 0.0099489335 -0.01050722 -0.011414499 -0.0074599083 0.02126438 0.029456038 0.01848526 -0.016977604
professor 1.0179735 -0.36125955 0.016968159 0.19182298 0.3136744 0.010223788 0.1751786 -0.23892234 -0.11656889 0.08098926 -0.10542566 -0.12220423 -1.169904E-4 0.20656916 -0.10288448 0.0042161336 -0.01364313 -0.09779533 -0.03832255 -0.03821063 0.009767648 0.002719421 -0.016188186 0.008129736 -0.06523909
shower 1.0492147 -0.20961879 -0.28762352 -0.040352456 -0.0679438 0.092515886 -0.062999316 0.13169162 -0.026222745 0.0069926237 -0.019259352 -0.009276013 0.019655703 -0.008316212 0.019592816 -0.013986586 7.532964E-4 -0.034070276 0.021906752 0.020305652 -0.010196963 0.0069935317 -0.02817333 -0.0386435 -0.03257362
woodland 0.9378973 -0.23741092 0.07630679 -0.05347719 0.014678396 0.21300413 -0.10100778 -0.067509525 -0.055212226 0.010326468 -0.02250876 0.03943467 -0.06819724 -0.04563172 0.029541818 -0.02103925 -0.009656098 0.02996995 -0.002019112 0.0119316885 0.030533358 0.031058375 0.027293075 -0.011313873 0.026951611
boxing 0.91095936 -0.027764335 0.027917434 -0.05087436 0.027240545 0.08277029 -0.031432755 -0.015420712 0.0137593085 0.062619284 0.05751048 0.01071855 0.008972926 -0.0014798385 0.0133395875 0.031875126 -0.018413253 0.008447549 0.00686861 0.031924035 0.016440429 0.0010324668 0.016774097 -0.0120464 0.023337664
crane 1.1030256 0.042499676 -0.08801675 -0.08167955 0.14141746 -0.005624242 0.120963976 -0.019588366 -0.042797405 0.012099759 -0.02282684 -3.1036572E-4 -0.043465447 -0.047807906 -0.027311087 0.0041080513 -0.040031407 0.0014886155 0.0066311248 0.007408686 0.024922362 -0.022771604 0.00289928 -0.017865023 0.009259351
critic 1.1022246 -0.1590507 -0.037791118 0.14643733 0.20899156 -0.07885803 0.091138214 -0.03372734 0.006231924 -0.027065767 0.008986051 0.01622647 0.041303672 0.023126114 -0.01094236 -0.10295129 0.0055131325 -0.020464515 0.0010322576 -0.026039364 -0.02459508 -0.03301896 -0.026490455 -0.02449383 0.017658642
tournament 1.1317098 0.3395112 0.061779827 -0.071297474 0.0526307 0.18509258 -0.095688924 0.028913174 0.022967473 -0.05197763 0.013349832 -0.042909175 0.017236438 0.008685645 0.04118266 0.02867576 -0.027581263 -4.9472187E-4 0.023900403 0.029751943 -0.042099565 0.009924047 -0.017744018 0.007139892 -0.01363346
territory 0.98446107 0.1071744 0.105293624 -0.0141929295 -0.08372917 0.09530089 -0.1313947 -0.01904355 0.009775906 0.011522358 9.672488E-4 -0.044500574 -0.04618595 -0.046624005 0.09305305 -0.043616924 0.015611484 -0.025367796 -0.011264763 -0.013402493 -0.0015495134 0.029342003 0.019447776 0.0013588613 0.034071673
collection 1.03583 0.009579737 0.026492309 0.2537799 0.025945747 -0.04414553 0.036392033 -0.02708189 -0.0061518354 -0.0027390984 0.046942614 -0.035418898 0.04372062 -0.0052618114 0.013335962 -0.02760615 0.003971709 0.039635252 -0.027649824 -0.003835641 -0.01446467 0.017820407 -0.0028868502 0.014486941 -0.010938504
fingerprint 0.9284369 -0.06429553 -0.20627339 0.0013992697 -0.0641969 0.0052657463 0.09087249 0.031084372 0.016515013 0.038474865 0.06758715 0.082225524 0.002744611 -0.0093776705 -0.07068201 0.025724938 -0.027705273 0.04130136 -0.031438913 0.042728003 0.07447234 -0.030944651 0.020577094 -0.038742166 0.023538144
substance 1.019615 -0.02062848 -0.068908975 0.06383876 -0.008755039 -0.07691825 -0.07563391 0.05596883 0.02537811 0.026881505 -0.018675352 -0.035809286 -0.052697886 -0.008120881 -0.0018986546 -0.02282838 0.0025632272 -0.04314242 0.004659114 0.012002966 0.0021452254 -0.0064329263 -0.0064681815 -0.010879824 0.022325594
cucumber 0.8962979 -0.362101 -0.12267542 0.07743333 0.13738663 -0.05054964 -0.077254236 0.18242681 0.0069551393 0.10065003 0.06089933 -0.012402573 -0.09567126 -2.9831383E-4 -0.12104792 0.06397248 0.1859118 0.04966226 0.021920742 0.118951134 -0.095007785 -0.041965622 0.088905565 0.02704309 -0.041330367
life 0.9081519 -0.09597524 0.0032692023 0.10093636 -0.10898991 -0.016163185 -0.13602212 -0.0844494 0.019722283 -0.014387167 0.07868826 -0.022180468 0.02632807 0.011257869 0.036075447 0.012399325 -0.006769341 0.010581998 0.013179777 0.039426886 0.03174318 0.013033211 0.004544433 0.0085229855 0.023316782
furnace 1.1311867 0.13470317 -0.060778785 0.10843575 0.025126738 0.0672034 -0.106108315 0.14960667 -0.056496162 -0.03479132 -0.080515325 -0.05828559 0.08184167 -0.011916816 0.0028925624 -0.010253821 0.055430844 0.057340708 0.004982477 0.003055784 -0.021756724 -0.014698635 -0.0074526104 0.044362858 0.015520895
crisis 1.1733649 0.37765133 0.04722299 -0.067252696 0.035254337 -0.009467275 -0.021287858 0.12057495 -0.01923629 -0.0239474 -0.04471822 -0.051962916 -0.05751423 -0.03116836 0.032053307 -0.030544283 0.0039588865 -0.03681664 0.019738315 0.006140934 -0.0035589065 -0.02206877 -0.02123027 -0.00977899 -0.011723127
baby 0.97633946 -0.07225682 -0.121590815 -0.025925126 0.033436354 -0.074056186 -0.05011115 0.01978056 -0.02101304 -0.037889805 0.055800837 -9.552658E-4 0.03610688 0.0057286997 -0.0035942597 0.012777048 -0.019921804 0.007620629 0.001972329 0.0036590726 -0.008731822 -0.025117258 -0.019862598 -5.812985E-4 0.012010892
sprint 0.8850832 0.03379278 0.04284734 -0.12320029 -0.005820572 0.053948984 0.04023865 -0.029256495 0.029466758 -0.036799673 0.034196246 0.02181018 0.027190724 -0.0034546233 0.0028203903 0.0431823 0.011414159 0.035464533 0.007923166 -0.035938364 0.0037914333 -0.011466102 0.037720338 0.0069766077 -0.0055937474
soccer 0.93314236 -0.08228691 5.2083976E-4 -0.07891614 0.024099335 0.097587 0.0016961906 -0.035781197 -0.019784544 -0.031933587 0.039865643 0.028882088 0.043383446 0.014525623 0.05100199 0.025325483 0.011043401 0.033213224 0.008231435 -0.046345647 4.7224882E-4 -0.0118301315 0.014172952 -0.032971993 -0.0029965695
citizen 1.0049479 -0.34455946 -0.27817756 0.0012025518 0.08451818 -0.04086787 0.019100817 -0.0701071 0.0060352897 -0.023506522 -0.05757804 0.045061115 -0.002454233 0.02280888 0.008620389 -0.088022806 -0.0047160117 -0.013091106 -0.012171285 8.5063664E-5 6.457032E-4 -0.035316173 -0.044987973 -0.033137027 0.032713056
proton 0.75586605 -0.02843903 0.069389574 0.08223993 0.019346572 -0.064703554 0.17340983 -0.10930515 0.061072793 0.008204741 -0.06456303 0.0076889414 0.010471046 0.027928676 -0.047645357 0.07178131 0.124926 0.09441789 0.004501004 0.08592277 -0.019333588 -0.008246252 0.01221576 -0.040213354 0.092291616
inmate 0.92258495 -0.024313634 -0.24859257 0.044508263 -0.030664893 0.12790626 0.014231241 -0.020406432 -0.030282874 -0.025053004 0.028374532 0.009432375 -0.021470146 0.069795854 -0.086874954 -0.112694554 0.05248116 -0.0058742454 -0.051006544 0.0029997334 -0.04709051 -0.019488888 -0.019351786 0.015603753 0.022779448
payment 0.9318684 -0.045516748 -0.10655855 0.09478947 -0.10044568 -0.0405372 0.035270475 0.014058917 0.11473434 0.04485469 -0.043796007 -0.047127943 0.024101647 -0.020859836 -0.007030952 -0.030335633 0.038064696 0.019197162 -0.0043289466 -0.0026435195 0.0034569693 0.006103954 0.019156542 0.019663552 0.0011845317
news 0.9170041 0.032468066 0.033308767 -0.11053735 0.09213724 -0.029125907 -0.052580673 -0.015006309 0.0315352 0.0552991 0.0076208254 -0.054724973 -0.06478076 0.01028085 0.019176014 -0.0038543537 -0.011943335 -0.057474386 0.04354726 -0.03757297 0.038942713 -0.02695757 0.008989845 0.010261664 0.0015786932
exhibit 1.04084 0.19368866 -0.04794342 -0.006708754 0.06885733 -0.07319171 0.012090472 0.02808984 -0.053934265 0.03164147 -0.045899156 0.054928727 0.015511624 0.09053491 -0.059257835 -0.029934835 0.026476813 0.015027725 -0.016276596 -0.012837847 -0.025111943 0.020536058 0.0065772743 1.3530639E-4 -0.0030659575
artifact 0.91709083 -0.04155656 -0.13556792 0.10494074 -0.18235146 -0.08466053 0.022239568 0.03697605 -0.018623088 0.061114438 0.013205915 0.055500202 -0.17955226 0.18445733 0.07361045 -0.2249591 -0.01652866 0.07196792 -0.041344643 -0.0076019014 -0.043672323 0.03557171 -0.086410046 0.04303299 0.04855287
challenge 1.041306 0.20019323 -0.19252518 -0.071292676 -0.17171772 -0.08292954 0.0809131 0.00715411 0.017487677 -0.03886236 -0.013021023 -0.021869408 0.02389232 0.02189376 0.030298704 -0.005715966 -0.021798465 -0.00275486 -0.0051231286 0.007844015 -0.004596133 0.0069665588 -0.019793902 -0.016077213 -0.0010961014
practice 0.9471663 0.0051285173 0.019558923 0.017087689 -0.07094999 0.045394495 -0.068822704 -0.053420097 0.0075832824 -0.010059638 0.01359774 0.0030627754 -0.011876891 0.012233586 0.011379968 0.029277056 -0.019489896 -0.003907578 0.009606102 0.0037260693 -0.0016592854 0.0019631158 0.0018173797 -0.001612238 0.006747192
weapon 1.0073384 -0.11668331 -0.42871475 0.13761894 -0.060360696 0.0014259191 -0.075607255 0.13500398 0.005967297 -0.0063714655 0.0150626665 -0.068917744 -0.010684717 0.037016194 0.038227454 -0.03500537 0.03093476 -0.034448925 -0.017757148 -0.01700127 -0.02965292 -0.011023259 0.010749739 -0.015278119 0.01504866
string 1.1129031 -0.13039239 -0.3338797 0.7455691 0.010156839 0.06751166 0.07316058 -0.11225122 -0.020918973 0.020271929 -0.01881432 0.0067543946 0.049973663 -0.093171306 0.0061745266 -0.011616122 7.3848583E-4 -0.007953099 -0.068553016 -0.028475137 0.0058888905 -0.011844649 0.012107708 -0.06636675 -0.023708902
Freud 0.0 0.0 0.0 0.0 0.0 0.0 0.0 0.0 0.0 0.0 0.0 0.0 0.0 0.0 0.0 0.0 0.0 0.0 0.0 0.0 0.0 0.0 0.0 0.0 0.0
tableware 1.139792 -0.37122115 0.30697712 0.069048755 0.18153481 0.0748859 -0.030110812 0.10261974 -0.04091491 -0.0074383025 -0.089018874 -0.048897363 -0.10224112 0.1359232 0.2613455 -0.0657955 -0.061179988 0.032724682 -0.08242582 -0.022739919 0.02276941 0.15237762 -0.062577195 -0.19643985 0.0033004715
cognition 1.0327252 -0.20328757 0.3422156 0.059759792 -0.15056276 -0.07553737 -0.12685736 0.17424585 -0.036168378 0.063422404 0.044520453 0.1998367 0.053749856 0.18343034 -0.00839957 -0.03195567 0.045516357 -0.053014774 -0.032043952 -0.04441 0.027658626 -0.040037237 -0.04666537 -0.0030924361 0.059686214
infrastructure 1.0083643 -0.25769374 0.1980848 -0.103035435 -0.12180786 0.01575157 0.029071704 0.04387303 0.026562134 -0.027355095 -0.043565236 0.06967153 0.028261622 0.01631782 0.027424082 -0.024443934 0.027992258 0.012512098 0.01888872 -0.045754015 0.012178498 -0.0075604194 0.01933138 -0.018440032 -0.0063952846
world 1.1757 0.35858813 0.1556964 -0.09121173 0.10413381 0.054002497 -0.011959239 0.034332402 -0.026446873 -0.08097866 0.033248086 0.022892384 0.026336476 -0.004784329 0.04949656 0.01924069 0.01178183 0.030344192 -0.009252342 -0.020934196 -0.018368743 0.0062263412 0.0028412114 -0.0061866404 0.0017420575
fear 0.9007615 -0.006876815 0.10598336 0.15372266 -0.07004518 -0.1543629 -0.004114536 -0.031812266 0.0829228 -0.041162062 -0.0046075596 0.01903294 -0.1060194 0.02502403 -0.020047307 0.06550697 -0.06485605 0.0013704129 0.028142184 -0.012865636 0.09914967 0.016202852 0.042548783 -0.015004076 -0.038937237
grocery 0.9599886 -0.22178374 0.006805061 -0.14552915 0.02489195 0.12717831 0.0028676149 0.010872521 -0.03683741 -0.0042376816 -0.040923607 -0.063604504 0.016528042 0.053638298 0.0013848627 0.050657947 0.0012325833 -0.032557733 0.0016980099 -0.015020676 0.024904782 0.03365633 0.009171138 0.00512872 -0.070726216
percent 0.8706374 -0.16142012 0.100878574 0.03217566 -0.10238348 0.069537885 0.041447565 -0.17249632 -0.0117574185 0.041062344 -0.035184 -0.13431196 -0.04034527 -0.086028814 0.056923 -0.014925264 0.040294044 0.044636972 -0.022813743 -0.018898731 -0.014339705 0.03173439 -0.0046348064 0.035747822 -0.010546423
cemetery 1.074265 0.08382889 -0.0773393 -0.07679992 0.07531057 0.230482 -0.07538706 -0.032220695 -0.0541845 0.01698161 -0.04332733 -0.057557266 0.024204172 0.10145605 0.026145844 0.061196882 -0.028338492 -0.03559303 -0.0147451935 -0.00825836 0.015645774 0.014850096 0.0061140885 -0.016041946 0.014599342
emergency 0.89893556 0.032356083 0.03179567 -0.004864093 -0.12789744 0.038704876 0.018217975 -0.043231044 0.007852152 -0.011111542 -0.010005935 -0.016154967 -0.02259731 0.042484812 -0.08050596 -0.1069635 0.06174394 -0.02671671 0.004821451 0.0054782685 -0.015794681 -0.014728963 -0.005497793 0.040042665 0.015122426
round 1.1396965 0.3225857 0.04927124 0.13428397 -0.0017523384 0.1666379 -0.074978836 -0.009622497 -0.043187246 -0.030688003 0.0048451913 -0.01922642 0.02149795 -0.057340674 -0.004991629 0.023560775 -0.022956558 -0.0058511323 0.013410354 0.06211654 -0.05122549 0.011146848 -0.016560623 -0.002762835 -0.017083146
scientist 1.0756812 -0.18282248 -0.21128646 -0.043948177 0.2980519 0.011146812 0.15814687 -0.05891934 -0.01590045 0.022106659 -0.063548125 -0.039609965 -0.0015843203 0.081018694 -0.05280002 -2.912617E-4 -0.010767299 -0.074772365 -0.01006018 -0.016004322 0.0168838 -0.038933285 -0.027020037 -0.030899992 -0.03264928
science 1.0507735 -0.095840275 0.17688671 0.05521478 -0.0072606127 0.045748424 -0.048601642 0.005846638 -0.011957151 -0.008619696 -0.048872203 0.012108639 0.010505658 0.05148341 -0.002865563 0.020285383 -0.006360581 0.0016896607 -0.0063846265 -0.020423226 0.02102992 -0.0146252625 -0.0043586944 -0.0013328892 -0.005806634
impartiality 0.88696826 -0.0021639746 0.20171076 0.10256046 -0.20275587 -0.024047336 -0.29601762 0.019698646 -2.7088085E-4 0.02409347 0.03924679 -0.13823764 0.060505856 0.011982211 0.1368266 -0.06473745 0.017997516 -0.08512293 0.053929303 0.011950349 -0.027617807 -0.008295937 -0.022516806 0.024704482 0.09955919
drought 1.0187231 -0.096614435 -0.028700115 0.05187416 -0.00801637 0.057188503 -0.0074592615 0.08212044 -0.02322964 -0.053809073 -0.029408988 0.017622925 -0.020737061 -0.030879734 0.010415998 -0.009993096 -0.0017300387 0.03544347 -0.025456954 -0.025838938 -2.2036864E-5 -0.010433674 -0.005197107 -0.037783485 -0.018233538
student 0.9545574 -0.2173609 -0.24044858 0.029422875 0.10080639 0.055486165 0.0860945 -0.07170541 -0.005074699 0.021673618 -0.027168008 -0.029879006 0.009072105 0.04356022 -0.013433339 -0.015989609 -0.026809514 -0.03875695 -0.0131856585 -0.006560284 0.0088261 -0.019890537 -0.035090867 -0.019765433 -0.008804779
metal 0.9515843 -0.104552224 -0.039951775 0.031978138 -0.010476211 0.04903667 -0.006016987 0.09159677 -0.013989545 0.012640845 -0.019103354 0.010790219 0.0037576593 -0.025028886 -0.015127965 0.0028263736 0.0029942435 -0.0010572842 -0.017111188 -0.0012718054 0.010554304 0.0032024938 0.004038015 -0.010878339 -0.0029564227
gender 0.95398057 -0.23885284 0.15309328 -0.023311967 -0.03701141 -0.04416414 -0.029641917 -0.0014868455 -0.0374901 0.031300124 -4.4126742E-4 0.004596383 -0.018727114 -0.010657139 0.032033894 0.004881457 -0.021864798 -0.015802484 0.030237652 9.0461527E-4 0.0062148194 0.025047725 -0.0048703714 -0.037450355 0.02473438
card 0.8441687 -0.06515023 -0.16527711 -0.053225286 -0.07686578 -0.012537223 -0.014024707 0.06353778 0.05723048 0.040843032 0.01795567 -0.038332004 0.026486924 0.016638547 0.014226219 -0.0016738893 0.011914048 -0.014059968 0.009725698 0.0055812667 0.017264517 0.0123075815 0.003088335 -0.012534884 -0.011862017
tennis 0.9928555 -0.09570553 0.05894493 -0.051640514 0.041973285 0.07957766 -0.0033183913 -0.027463576 -0.01992765 -0.0063385386 0.056990642 -0.022155268 0.015307909 0.028474525 0.050923377 0.024211776 4.951911E-5 0.004935413 9.315943E-4 -0.007583906 -0.006542538 0.014236261 0.008122357 -0.004625936 9.734876E-4
morality 0.9564406 -0.20097007 0.077278525 0.18755881 -0.09146525 -0.109515905 -0.13102202 0.01737047 -0.021130642 0.04565043 0.02859171 -0.025173062 -0.016900398 0.011168879 0.08922995 -0.0040103113 0.02539185 0.013691715 -0.016285872 -0.01201937 -0.0065941014 0.019526977 -0.009189861 0.006604952 0.035283048
antecedent 0.0 0.0 0.0 0.0 0.0 0.0 0.0 0.0 0.0 0.0 0.0 0.0 0.0 0.0 0.0 0.0 0.0 0.0 0.0 0.0 0.0 0.0 0.0 0.0 0.0
fruit 0.95530874 -0.3566261 0.13487896 5.3869456E-4 -0.038997803 -0.020964047 -0.0092454 0.13775666 -0.017990908 -0.02169349 -0.025943857 0.048242874 0.0040476345 0.00850568 -0.0192323 0.015594146 0.015456727 0.035844218 0.016418727 -0.0030705358 -0.0013451275 -0.008207897 -0.011134751 0.002543707 -0.015209016
index 0.93081003 0.0851645 0.16919164 -0.16211127 0.18783404 -0.0019142342 0.17933322 -0.08456106 0.0033743167 -0.021342505 0.0330398 8.2476175E-4 0.02753148 -0.037356827 0.05597155 -0.006410757 0.055992812 0.096006095 0.014804311 -0.03553978 -0.02822703 0.027145421 0.042424373 -0.03659801 -0.022325134
victim 1.1876036 0.26204908 -0.08267325 0.06644128 0.11577684 -0.060524113 0.06513587 0.043878984 -0.06656885 -0.043412134 0.07279174 -0.026532117 6.972563E-4 0.009957609 -0.043012805 -0.050296754 -0.05944531 -0.02768292 0.029673139 0.034888003 0.019326966 -0.041184846 -0.043989617 0.009257548 0.022578675
association 1.1998937 0.3042897 0.27614865 0.09234602 0.20214584 -0.04725653 0.1181153 0.061545696 0.004613999 -0.007031353 -0.020189688 -0.08895146 -0.018587613 -0.037319433 -0.038388796 -0.0058896444 0.06475175 0.0020870448 0.037622288 0.049225215 0.028746108 -0.05491692 -0.011937209 0.027351333 0.0076711792
mouth 1.007265 -0.08849494 0.04691356 -0.0013736474 -0.046677362 0.024573617 -0.123128206 0.0181993 -0.08618367 -0.03562481 0.17781198 -0.045299627 0.021421095 0.008658107 0.04043083 0.012626346 -0.024914404 0.018253151 0.009298147 0.10868252 0.045892086 0.0818994 -0.0023555341 0.039328247 -0.0031391075
dividend 0.87717634 0.04588133 -0.1372161 0.08793303 -0.13411042 -0.021699702 0.05975552 0.032875434 0.052831985 0.11478377 -0.06733883 -0.07153477 0.009399305 -0.058520578 0.087326735 -0.05192616 0.04823776 0.062722795 -0.0054708202 -0.08194627 -0.0049791876 0.05028254 0.0790686 0.029911028 -0.018578863
coffee 0.9291162 -0.27729875 5.031955E-4 0.029700639 -0.0016483036 0.04030603 -0.030956862 0.07500047 0.0051025967 -0.0015197357 -0.015976321 6.11053E-4 0.027552377 0.014966897 -0.0020203406 0.021647448 0.01048252 0.002518769 0.0020460507 -0.012440273 0.006546869 0.006902659 2.6769183E-5 -0.014556183 -0.015544471
effort 1.0062565 0.15390842 -0.18749836 -0.09713581 -0.36438337 0.037786383 0.08593383 -0.15803902 -0.076947615 -0.08252058 -0.03292594 0.048532803 -0.041362196 0.037741017 -0.07183431 -0.1453616 0.05407852 0.029195467 -0.018565685 0.02291381 -0.05624561 0.030722493 -0.005292308 -0.001360312 -0.01379405
possibility 1.258167 0.3972932 0.04647446 0.30842945 0.0970491 -0.19282247 0.10674099 0.06044645 0.03389151 -0.030774618 -0.04092622 5.3275155E-4 -0.15942478 0.0010105454 -0.06421159 0.06431727 -0.06837251 -0.015133769 0.013667136 0.045198854 0.08150999 0.010802173 0.036335412 -0.021623861 -0.069282696
forest 1.0382972 -0.012405453 0.096883826 -0.015286132 0.068111345 0.13523954 -0.029809605 -0.01535388 -0.03088104 -0.0141962785 -0.05528628 -0.0041863522 -0.013518963 -0.026900006 0.015191817 -3.3457135E-4 -0.009159918 1.1425773E-4 -0.0027591237 -0.0010382977 0.037489954 -0.0017327989 -0.009325885 -0.0023270936 0.007507082
senate 1.1377846 0.28596407 0.07217393 -0.15943938 0.06602668 0.076767944 0.046874985 0.051997248 0.00337892 -0.018881438 -0.033775456 0.062464707 0.0040805778 -0.06613727 -0.025466807 2.606268E-4 -0.020779299 -0.027954489 0.02698439 0.03727338 0.04002629 -0.02231746 -0.012468443 -0.0315551 0.0025901764
nation 1.1930085 0.36359078 0.11196684 -0.087493815 0.0888211 -0.03859767 0.055885203 0.019003782 0.0012528028 -0.11682066 0.16089343 0.03117854 0.073547184 0.049071144 0.13979377 0.0029174807 0.056786414 0.06515072 -0.014118536 -0.15267408 -0.039034303 -0.007879694 0.033534586 -0.013226087 -0.017341757
size 1.3030351 0.26863286 0.21693145 0.30939654 0.013086881 -0.069599934 0.08578041 0.06363062 -0.06331772 -0.018412998 -0.023464726 -0.0026668082 0.010909752 -0.0429209 9.729666E-4 -0.011577184 0.0047964104 0.0019083893 0.006992095 0.03122122 -0.0041960194 0.03174196 -0.006358202 -0.002851962 -0.018695025
rabbi 1.0481082 -0.2944644 -0.09505518 -0.043115877 0.25845307 -0.022101823 0.1391137 -0.05734764 -0.03765124 -0.050214235 0.014436641 0.023530275 0.015721967 -0.018899357 -0.002483369 -0.05714055 -0.0035829342 -0.016156267 0.033254825 -0.04083043 0.021445788 -0.024825672 -0.019933404 -0.025968852 -0.016022997
benchmark 0.8831521 0.23323618 0.061664462 -0.16754386 0.11610479 -0.0010854312 0.15941647 -0.032052495 0.13069192 0.021795228 4.0888364E-4 0.035884984 0.076240495 -0.07506655 -0.026758255 0.008428007 0.026642324 0.02231718 -0.010152869 -0.0066941367 -0.054286916 0.0049948283 0.062778845 -0.0355114 0.0013610019
cash 0.8815115 -0.059861995 0.023906816 0.005838069 -0.22376715 0.0507793 -0.032775763 -0.044611454 0.05231328 -0.0018128395 -0.04498227 -0.011205218 0.028311575 -0.048522312 -0.013393051 0.011694223 0.03493851 0.047888864 -0.033973843 -0.01899434 0.010970078 0.007878233 0.021029636 0.038231365 -0.0045376685
medal 1.0453568 0.21566907 -0.06154579 -0.018774625 0.047119927 0.14078192 -0.033577137 0.016116258 0.036183048 -0.06792967 0.085957505 -0.013987499 0.093073696 0.06169028 -0.031342566 0.021085072 -0.011932867 0.0048457272 -0.013663104 0.03834298 -0.05141793 0.012062379 0.014450941 0.0010043902 -0.014120696
car 0.99532944 0.028379845 -0.22828585 0.0014323911 0.00821971 0.12790784 -0.036023628 0.038005516 -0.025076378 -0.017558636 0.038803335 0.016805993 0.019411908 -0.0044441232 -0.004006377 -1.0529065E-4 -0.034207437 0.0069709686 -0.007848146 0.011745422 0.041873235 0.0071914843 -0.0018241606 -0.017360825 6.5053813E-4
attempt 0.95631874 0.20333126 -0.2538123 -0.1919553 -0.5625947 0.03596825 0.16769242 -0.24407433 -0.14610599 -0.07510149 -0.010548058 0.05046084 -0.032452285 0.082128204 -0.12345178 -0.19082896 0.076345295 0.033983883 -0.03013498 0.045412 -0.08794641 0.05305694 -0.005754088 0.00888236 0.0058809323
cat 1.0409554 -0.12522691 -0.115833655 -0.055064127 0.086154856 -0.053350873 0.0013513148 0.060089715 -0.021220956 0.0054616067 0.025528513 0.025461063 0.024784785 -0.013840766 -0.004406952 0.025303656 6.830853E-4 0.012027652 0.0028260858 0.017054401 -0.005872669 -0.0068120477 -0.010719613 -0.015303627 -0.009526267
minority 0.9689461 -0.075912274 -0.069085136 0.049860947 -0.033370186 0.036400877 0.0023416467 -0.021736624 0.0069020973 -0.04749368 -0.028088368 -0.0033368345 -1.6641297E-4 -0.030964032 0.034286268 -0.0061094332 0.01550566 0.009144651 -0.008476243 -0.03255252 0.019325234 -0.021075223 -0.0064812726 -0.018897178 0.0052429438
children 0.8890265 -0.12950008 0.12203995 -0.018659426 -0.15122028 -0.006572278 -0.0018970463 -0.02830292 0.022972157 -0.0569158 0.08166649 -0.02970553 0.021348817 0.003912789 -0.0109333275 0.059947845 0.009668469 -0.0038725354 -0.013229125 -0.023974407 0.005775789 -0.007851159 -0.0059074527 0.009387241 0.003832499
sun 1.2039931 0.25122696 0.17997529 -0.21959329 0.17467615 -0.003250132 0.010943276 0.10807931 -0.036128 -0.016712794 -0.033051733 -0.012587266 -0.018062783 -0.034656085 0.0073530646 -0.001266383 -0.0057947147 -0.01903244 0.027786648 0.043188795 0.009095542 0.004678534 -0.021349559 0.010782822 0.0034701438
journal 1.34703 0.3435166 0.28576297 -0.0071822978 0.2572799 0.20345964 -0.09128201 -0.047095623 -0.060693458 -0.030173684 -0.07616157 -5.6445522E-5 -0.09766635 -0.10489645 0.056327634 -0.03417182 -0.009663259 -0.07915969 0.094569445 0.054232907 0.039956126 -0.0046925363 -0.032092255 -0.010539091 -0.011929122
performance 0.9424432 -0.013300607 -0.0245982 0.04316986 -0.02153134 0.028109716 -0.049605794 0.0024179749 0.0247203 -0.015905134 0.089083254 0.008763439 0.023768187 0.020599883 0.020998131 -8.353703E-5 0.012178008 0.029209392 -0.006304499 -0.05345079 -0.009496505 0.0017090398 0.04078763 0.002670995 -0.0028530885
implement 0.9695437 0.11940981 -0.12946735 -0.21633165 -0.62520224 -0.17488414 0.22615775 -0.012749943 -0.13579828 -0.05615439 -0.10108595 -0.04802101 0.05905983 -0.013439051 -0.039170384 -0.008272928 0.027201168 -0.010259584 0.02404529 -0.008088195 -0.015251996 -0.012785685 -0.033633396 -0.030501598 -0.027905429
kilometer 0.9589027 0.06702795 -0.32993975 0.0053071007 0.13775288 0.073693804 0.07077651 0.05900018 -0.009640039 0.2538069 -0.12263076 -0.13837817 -0.06776795 -0.005437659 0.037579164 0.12830316 0.14119287 0.35105982 0.06622279 0.14834654 0.19601046 -0.12730399 -0.027865727 0.08220316 0.06655681
feline 1.0381688 0.0714167 -0.098925464 -0.07082923 0.105543874 0.00323014 0.053560764 -0.027531188 0.01056818 0.018232418 0.054411247 -0.095067225 -0.11046251 -0.038552076 0.05424563 0.05471456 -0.013146374 0.09343251 -0.001765204 0.08824246 0.012701268 -0.06488722 -0.03099183 0.03438031 0.011568656
institution 1.0917428 0.13666475 -0.0485422 0.03260245 0.058652468 0.019126793 0.028392268 -0.021819016 0.018239662 -0.0059280274 -0.038967017 -0.03083133 -0.065143056 0.095427975 -0.014872513 -0.030776845 0.034759283 0.0010218184 -0.0022185137 0.0018673248 -0.016626867 0.016609535 0.018655876 0.0057741012 -0.0094622485
animal 0.9355924 -0.017635122 0.05272229 -0.03753393 -0.027578712 -0.04348043 -0.017577205 0.041322313 0.012752735 9.6522743E-4 9.0587075E-4 0.00613764 -0.037570246 0.05467677 -0.0255735 -0.054888975 0.025049152 0.0018912405 -0.008295805 -0.0023025314 -0.004247271 -0.0012014111 6.141804E-4 0.025122909 0.022430634
Japanese 0.0 0.0 0.0 0.0 0.0 0.0 0.0 0.0 0.0 0.0 0.0 0.0 0.0 0.0 0.0 0.0 0.0 0.0 0.0 0.0 0.0 0.0 0.0 0.0 0.0
thunderstorm 1.1151633 -0.2999684 -0.53223914 0.1434615 0.1720162 0.05585088 0.0116591 0.06918561 -0.06229842 0.09988256 -0.13156623 0.008649507 6.9734966E-4 -0.014500524 0.063825764 -0.10254026 -0.13078144 -0.035371687 0.015157618 0.002315815 -7.768174E-4 0.011434126 -0.07136447 -0.076721996 -0.01874917
forecast 0.86979437 0.04051564 -0.0029621855 0.009444452 -0.08589427 -0.032763805 0.060303163 -0.06306189 0.14067014 0.014296269 -0.038544696 -0.054603834 -0.016092656 -0.052504573 0.0160038 -0.018512998 -0.002604404 0.044810507 -0.004788348 -0.04817996 -0.009795918 0.029456386 0.053628754 0.029820666 -0.02189112
recovery 0.9971662 0.042926602 -0.054070376 0.008747998 -0.08412845 -0.0323785 -0.084247194 0.052859016 0.033574983 0.00401505 -0.024128115 -0.038602393 -0.023884153 0.016127568 0.053742345 -0.04316837 0.009291189 -0.015364832 -0.0018348598 -0.021814918 0.023348622 -0.0058290246 0.0013313906 0.0016087611 0.0035012448
